digraph Tree {
node [shape=box, style="filled, rounded", color="black", fontname=helvetica] ;
edge [fontname=helvetica] ;
0 [label=<X<SUB>0</SUB> &le; 0.982<br/>gini = 0.678<br/>samples = 3330<br/>value = [1786, 29, 40, 33, 66, 84, 153, 201, 256, 342, 340]>, fillcolor="#f2c29f"] ;
1 [label=<X<SUB>1</SUB> &le; 1.047<br/>gini = 0.829<br/>samples = 1231<br/>value = [378, 0, 0, 18, 47, 70, 137, 173, 180, 136, 92]>, fillcolor="#fae7da"] ;
0 -> 1 [labeldistance=2.5, labelangle=45, headlabel="True"] ;
2 [label=<X<SUB>0</SUB> &le; 0.088<br/>gini = 0.699<br/>samples = 537<br/>value = [264, 0, 0, 0, 0, 11, 14, 50, 92, 63, 43]>, fillcolor="#f5ceb2"] ;
1 -> 2 ;
3 [label=<X<SUB>1</SUB> &le; 0.273<br/>gini = 0.081<br/>samples = 47<br/>value = [0, 0, 0, 0, 0, 0, 2, 45, 0, 0, 0]>, fillcolor="#6842e6"] ;
2 -> 3 ;
4 [label=<X<SUB>1</SUB> &le; 0.236<br/>gini = 0.375<br/>samples = 8<br/>value = [0, 0, 0, 0, 0, 0, 2, 6, 0, 0, 0]>, fillcolor="#967bee"] ;
3 -> 4 ;
5 [label=<gini = 0.0<br/>samples = 6<br/>value = [0, 0, 0, 0, 0, 0, 0, 6, 0, 0, 0]>, fillcolor="#6139e5"] ;
4 -> 5 ;
6 [label=<gini = 0.0<br/>samples = 2<br/>value = [0, 0, 0, 0, 0, 0, 2, 0, 0, 0, 0]>, fillcolor="#396fe5"] ;
4 -> 6 ;
7 [label=<gini = 0.0<br/>samples = 39<br/>value = [0, 0, 0, 0, 0, 0, 0, 39, 0, 0, 0]>, fillcolor="#6139e5"] ;
3 -> 7 ;
8 [label=<X<SUB>0</SUB> &le; 0.713<br/>gini = 0.649<br/>samples = 490<br/>value = [264, 0, 0, 0, 0, 11, 12, 5, 92, 63, 43]>, fillcolor="#f4c9a9"] ;
2 -> 8 ;
9 [label=<X<SUB>0</SUB> &le; 0.18<br/>gini = 0.593<br/>samples = 341<br/>value = [205, 0, 0, 0, 0, 8, 8, 5, 61, 29, 25]>, fillcolor="#f2be99"] ;
8 -> 9 ;
10 [label=<X<SUB>0</SUB> &le; 0.091<br/>gini = 0.371<br/>samples = 63<br/>value = [49, 0, 0, 0, 0, 0, 2, 0, 3, 9, 0]>, fillcolor="#eca26c"] ;
9 -> 10 ;
11 [label=<X<SUB>0</SUB> &le; 0.09<br/>gini = 0.444<br/>samples = 3<br/>value = [1, 0, 0, 0, 0, 0, 0, 0, 2, 0, 0]>, fillcolor="#de9cf2"] ;
10 -> 11 ;
12 [label=<gini = 0.0<br/>samples = 1<br/>value = [1, 0, 0, 0, 0, 0, 0, 0, 0, 0, 0]>, fillcolor="#e58139"] ;
11 -> 12 ;
13 [label=<gini = 0.0<br/>samples = 2<br/>value = [0, 0, 0, 0, 0, 0, 0, 0, 2, 0, 0]>, fillcolor="#bd39e5"] ;
11 -> 13 ;
14 [label=<X<SUB>1</SUB> &le; 0.613<br/>gini = 0.336<br/>samples = 60<br/>value = [48, 0, 0, 0, 0, 0, 2, 0, 1, 9, 0]>, fillcolor="#eb9f68"] ;
10 -> 14 ;
15 [label=<X<SUB>1</SUB> &le; 0.496<br/>gini = 0.375<br/>samples = 36<br/>value = [27, 0, 0, 0, 0, 0, 0, 0, 0, 9, 0]>, fillcolor="#eeab7b"] ;
14 -> 15 ;
16 [label=<X<SUB>1</SUB> &le; 0.238<br/>gini = 0.305<br/>samples = 32<br/>value = [26, 0, 0, 0, 0, 0, 0, 0, 0, 6, 0]>, fillcolor="#eb9e67"] ;
15 -> 16 ;
17 [label=<X<SUB>1</SUB> &le; 0.065<br/>gini = 0.188<br/>samples = 19<br/>value = [17, 0, 0, 0, 0, 0, 0, 0, 0, 2, 0]>, fillcolor="#e89050"] ;
16 -> 17 ;
18 [label=<X<SUB>0</SUB> &le; 0.13<br/>gini = 0.444<br/>samples = 6<br/>value = [4, 0, 0, 0, 0, 0, 0, 0, 0, 2, 0]>, fillcolor="#f2c09c"] ;
17 -> 18 ;
19 [label=<gini = 0.0<br/>samples = 2<br/>value = [0, 0, 0, 0, 0, 0, 0, 0, 0, 2, 0]>, fillcolor="#e539ae"] ;
18 -> 19 ;
20 [label=<gini = 0.0<br/>samples = 4<br/>value = [4, 0, 0, 0, 0, 0, 0, 0, 0, 0, 0]>, fillcolor="#e58139"] ;
18 -> 20 ;
21 [label=<gini = 0.0<br/>samples = 13<br/>value = [13, 0, 0, 0, 0, 0, 0, 0, 0, 0, 0]>, fillcolor="#e58139"] ;
17 -> 21 ;
22 [label=<X<SUB>0</SUB> &le; 0.123<br/>gini = 0.426<br/>samples = 13<br/>value = [9, 0, 0, 0, 0, 0, 0, 0, 0, 4, 0]>, fillcolor="#f1b991"] ;
16 -> 22 ;
23 [label=<gini = 0.0<br/>samples = 5<br/>value = [5, 0, 0, 0, 0, 0, 0, 0, 0, 0, 0]>, fillcolor="#e58139"] ;
22 -> 23 ;
24 [label=<X<SUB>0</SUB> &le; 0.129<br/>gini = 0.5<br/>samples = 8<br/>value = [4, 0, 0, 0, 0, 0, 0, 0, 0, 4, 0]>, fillcolor="#ffffff"] ;
22 -> 24 ;
25 [label=<gini = 0.0<br/>samples = 1<br/>value = [0, 0, 0, 0, 0, 0, 0, 0, 0, 1, 0]>, fillcolor="#e539ae"] ;
24 -> 25 ;
26 [label=<X<SUB>1</SUB> &le; 0.371<br/>gini = 0.49<br/>samples = 7<br/>value = [4, 0, 0, 0, 0, 0, 0, 0, 0, 3, 0]>, fillcolor="#f8e0ce"] ;
24 -> 26 ;
27 [label=<X<SUB>1</SUB> &le; 0.313<br/>gini = 0.48<br/>samples = 5<br/>value = [2, 0, 0, 0, 0, 0, 0, 0, 0, 3, 0]>, fillcolor="#f6bde4"] ;
26 -> 27 ;
28 [label=<X<SUB>1</SUB> &le; 0.258<br/>gini = 0.444<br/>samples = 3<br/>value = [2, 0, 0, 0, 0, 0, 0, 0, 0, 1, 0]>, fillcolor="#f2c09c"] ;
27 -> 28 ;
29 [label=<gini = 0.0<br/>samples = 1<br/>value = [0, 0, 0, 0, 0, 0, 0, 0, 0, 1, 0]>, fillcolor="#e539ae"] ;
28 -> 29 ;
30 [label=<gini = 0.0<br/>samples = 2<br/>value = [2, 0, 0, 0, 0, 0, 0, 0, 0, 0, 0]>, fillcolor="#e58139"] ;
28 -> 30 ;
31 [label=<gini = 0.0<br/>samples = 2<br/>value = [0, 0, 0, 0, 0, 0, 0, 0, 0, 2, 0]>, fillcolor="#e539ae"] ;
27 -> 31 ;
32 [label=<gini = 0.0<br/>samples = 2<br/>value = [2, 0, 0, 0, 0, 0, 0, 0, 0, 0, 0]>, fillcolor="#e58139"] ;
26 -> 32 ;
33 [label=<X<SUB>0</SUB> &le; 0.094<br/>gini = 0.375<br/>samples = 4<br/>value = [1, 0, 0, 0, 0, 0, 0, 0, 0, 3, 0]>, fillcolor="#ee7bc9"] ;
15 -> 33 ;
34 [label=<gini = 0.0<br/>samples = 1<br/>value = [1, 0, 0, 0, 0, 0, 0, 0, 0, 0, 0]>, fillcolor="#e58139"] ;
33 -> 34 ;
35 [label=<gini = 0.0<br/>samples = 3<br/>value = [0, 0, 0, 0, 0, 0, 0, 0, 0, 3, 0]>, fillcolor="#e539ae"] ;
33 -> 35 ;
36 [label=<X<SUB>1</SUB> &le; 0.807<br/>gini = 0.226<br/>samples = 24<br/>value = [21, 0, 0, 0, 0, 0, 2, 0, 1, 0, 0]>, fillcolor="#e99254"] ;
14 -> 36 ;
37 [label=<X<SUB>1</SUB> &le; 0.702<br/>gini = 0.46<br/>samples = 10<br/>value = [7, 0, 0, 0, 0, 0, 2, 0, 1, 0, 0]>, fillcolor="#efb083"] ;
36 -> 37 ;
38 [label=<gini = 0.0<br/>samples = 6<br/>value = [6, 0, 0, 0, 0, 0, 0, 0, 0, 0, 0]>, fillcolor="#e58139"] ;
37 -> 38 ;
39 [label=<X<SUB>1</SUB> &le; 0.746<br/>gini = 0.625<br/>samples = 4<br/>value = [1, 0, 0, 0, 0, 0, 2, 0, 1, 0, 0]>, fillcolor="#bdcff6"] ;
37 -> 39 ;
40 [label=<gini = 0.0<br/>samples = 2<br/>value = [0, 0, 0, 0, 0, 0, 2, 0, 0, 0, 0]>, fillcolor="#396fe5"] ;
39 -> 40 ;
41 [label=<X<SUB>0</SUB> &le; 0.137<br/>gini = 0.5<br/>samples = 2<br/>value = [1, 0, 0, 0, 0, 0, 0, 0, 1, 0, 0]>, fillcolor="#ffffff"] ;
39 -> 41 ;
42 [label=<gini = 0.0<br/>samples = 1<br/>value = [0, 0, 0, 0, 0, 0, 0, 0, 1, 0, 0]>, fillcolor="#bd39e5"] ;
41 -> 42 ;
43 [label=<gini = 0.0<br/>samples = 1<br/>value = [1, 0, 0, 0, 0, 0, 0, 0, 0, 0, 0]>, fillcolor="#e58139"] ;
41 -> 43 ;
44 [label=<gini = 0.0<br/>samples = 14<br/>value = [14, 0, 0, 0, 0, 0, 0, 0, 0, 0, 0]>, fillcolor="#e58139"] ;
36 -> 44 ;
45 [label=<X<SUB>0</SUB> &le; 0.431<br/>gini = 0.627<br/>samples = 278<br/>value = [156, 0, 0, 0, 0, 8, 6, 5, 58, 20, 25]>, fillcolor="#f3c7a7"] ;
9 -> 45 ;
46 [label=<X<SUB>0</SUB> &le; 0.419<br/>gini = 0.728<br/>samples = 133<br/>value = [61, 0, 0, 0, 0, 8, 6, 5, 21, 14, 18]>, fillcolor="#f6d2b8"] ;
45 -> 46 ;
47 [label=<X<SUB>1</SUB> &le; 0.384<br/>gini = 0.693<br/>samples = 124<br/>value = [61, 0, 0, 0, 0, 0, 6, 5, 21, 13, 18]>, fillcolor="#f5ceb2"] ;
46 -> 47 ;
48 [label=<X<SUB>1</SUB> &le; 0.168<br/>gini = 0.735<br/>samples = 42<br/>value = [14, 0, 0, 0, 0, 0, 0, 0, 8, 8, 12]>, fillcolor="#fdf7f2"] ;
47 -> 48 ;
49 [label=<X<SUB>0</SUB> &le; 0.261<br/>gini = 0.581<br/>samples = 17<br/>value = [10, 0, 0, 0, 0, 0, 0, 0, 4, 1, 2]>, fillcolor="#f3c5a4"] ;
48 -> 49 ;
50 [label=<X<SUB>1</SUB> &le; 0.061<br/>gini = 0.56<br/>samples = 5<br/>value = [1, 0, 0, 0, 0, 0, 0, 0, 3, 0, 1]>, fillcolor="#de9cf2"] ;
49 -> 50 ;
51 [label=<X<SUB>1</SUB> &le; 0.02<br/>gini = 0.5<br/>samples = 2<br/>value = [1, 0, 0, 0, 0, 0, 0, 0, 0, 0, 1]>, fillcolor="#ffffff"] ;
50 -> 51 ;
52 [label=<gini = 0.0<br/>samples = 1<br/>value = [1, 0, 0, 0, 0, 0, 0, 0, 0, 0, 0]>, fillcolor="#e58139"] ;
51 -> 52 ;
53 [label=<gini = 0.0<br/>samples = 1<br/>value = [0, 0, 0, 0, 0, 0, 0, 0, 0, 0, 1]>, fillcolor="#e53950"] ;
51 -> 53 ;
54 [label=<gini = 0.0<br/>samples = 3<br/>value = [0, 0, 0, 0, 0, 0, 0, 0, 3, 0, 0]>, fillcolor="#bd39e5"] ;
50 -> 54 ;
55 [label=<X<SUB>1</SUB> &le; 0.113<br/>gini = 0.417<br/>samples = 12<br/>value = [9, 0, 0, 0, 0, 0, 0, 0, 1, 1, 1]>, fillcolor="#eca36f"] ;
49 -> 55 ;
56 [label=<X<SUB>1</SUB> &le; 0.106<br/>gini = 0.667<br/>samples = 6<br/>value = [3, 0, 0, 0, 0, 0, 0, 0, 1, 1, 1]>, fillcolor="#f5cdb0"] ;
55 -> 56 ;
57 [label=<X<SUB>1</SUB> &le; 0.02<br/>gini = 0.56<br/>samples = 5<br/>value = [3, 0, 0, 0, 0, 0, 0, 0, 0, 1, 1]>, fillcolor="#f2c09c"] ;
56 -> 57 ;
58 [label=<gini = 0.0<br/>samples = 2<br/>value = [2, 0, 0, 0, 0, 0, 0, 0, 0, 0, 0]>, fillcolor="#e58139"] ;
57 -> 58 ;
59 [label=<X<SUB>1</SUB> &le; 0.03<br/>gini = 0.667<br/>samples = 3<br/>value = [1, 0, 0, 0, 0, 0, 0, 0, 0, 1, 1]>, fillcolor="#ffffff"] ;
57 -> 59 ;
60 [label=<gini = 0.0<br/>samples = 1<br/>value = [0, 0, 0, 0, 0, 0, 0, 0, 0, 1, 0]>, fillcolor="#e539ae"] ;
59 -> 60 ;
61 [label=<X<SUB>1</SUB> &le; 0.066<br/>gini = 0.5<br/>samples = 2<br/>value = [1, 0, 0, 0, 0, 0, 0, 0, 0, 0, 1]>, fillcolor="#ffffff"] ;
59 -> 61 ;
62 [label=<gini = 0.0<br/>samples = 1<br/>value = [0, 0, 0, 0, 0, 0, 0, 0, 0, 0, 1]>, fillcolor="#e53950"] ;
61 -> 62 ;
63 [label=<gini = 0.0<br/>samples = 1<br/>value = [1, 0, 0, 0, 0, 0, 0, 0, 0, 0, 0]>, fillcolor="#e58139"] ;
61 -> 63 ;
64 [label=<gini = 0.0<br/>samples = 1<br/>value = [0, 0, 0, 0, 0, 0, 0, 0, 1, 0, 0]>, fillcolor="#bd39e5"] ;
56 -> 64 ;
65 [label=<gini = 0.0<br/>samples = 6<br/>value = [6, 0, 0, 0, 0, 0, 0, 0, 0, 0, 0]>, fillcolor="#e58139"] ;
55 -> 65 ;
66 [label=<X<SUB>0</SUB> &le; 0.399<br/>gini = 0.71<br/>samples = 25<br/>value = [4, 0, 0, 0, 0, 0, 0, 0, 4, 7, 10]>, fillcolor="#fbdee2"] ;
48 -> 66 ;
67 [label=<X<SUB>0</SUB> &le; 0.357<br/>gini = 0.725<br/>samples = 20<br/>value = [4, 0, 0, 0, 0, 0, 0, 0, 3, 7, 6]>, fillcolor="#fdf1f9"] ;
66 -> 67 ;
68 [label=<X<SUB>1</SUB> &le; 0.205<br/>gini = 0.694<br/>samples = 14<br/>value = [4, 0, 0, 0, 0, 0, 0, 0, 2, 2, 6]>, fillcolor="#fad7dc"] ;
67 -> 68 ;
69 [label=<X<SUB>0</SUB> &le; 0.333<br/>gini = 0.48<br/>samples = 5<br/>value = [0, 0, 0, 0, 0, 0, 0, 0, 0, 2, 3]>, fillcolor="#f6bdc5"] ;
68 -> 69 ;
70 [label=<X<SUB>1</SUB> &le; 0.183<br/>gini = 0.444<br/>samples = 3<br/>value = [0, 0, 0, 0, 0, 0, 0, 0, 0, 2, 1]>, fillcolor="#f29cd6"] ;
69 -> 70 ;
71 [label=<gini = 0.0<br/>samples = 1<br/>value = [0, 0, 0, 0, 0, 0, 0, 0, 0, 0, 1]>, fillcolor="#e53950"] ;
70 -> 71 ;
72 [label=<gini = 0.0<br/>samples = 2<br/>value = [0, 0, 0, 0, 0, 0, 0, 0, 0, 2, 0]>, fillcolor="#e539ae"] ;
70 -> 72 ;
73 [label=<gini = 0.0<br/>samples = 2<br/>value = [0, 0, 0, 0, 0, 0, 0, 0, 0, 0, 2]>, fillcolor="#e53950"] ;
69 -> 73 ;
74 [label=<X<SUB>0</SUB> &le; 0.258<br/>gini = 0.642<br/>samples = 9<br/>value = [4, 0, 0, 0, 0, 0, 0, 0, 2, 0, 3]>, fillcolor="#fbeade"] ;
68 -> 74 ;
75 [label=<X<SUB>0</SUB> &le; 0.238<br/>gini = 0.611<br/>samples = 6<br/>value = [1, 0, 0, 0, 0, 0, 0, 0, 2, 0, 3]>, fillcolor="#f8ced3"] ;
74 -> 75 ;
76 [label=<X<SUB>0</SUB> &le; 0.185<br/>gini = 0.625<br/>samples = 4<br/>value = [1, 0, 0, 0, 0, 0, 0, 0, 2, 0, 1]>, fillcolor="#e9bdf6"] ;
75 -> 76 ;
77 [label=<gini = 0.0<br/>samples = 1<br/>value = [0, 0, 0, 0, 0, 0, 0, 0, 0, 0, 1]>, fillcolor="#e53950"] ;
76 -> 77 ;
78 [label=<X<SUB>0</SUB> &le; 0.214<br/>gini = 0.444<br/>samples = 3<br/>value = [1, 0, 0, 0, 0, 0, 0, 0, 2, 0, 0]>, fillcolor="#de9cf2"] ;
76 -> 78 ;
79 [label=<gini = 0.0<br/>samples = 2<br/>value = [0, 0, 0, 0, 0, 0, 0, 0, 2, 0, 0]>, fillcolor="#bd39e5"] ;
78 -> 79 ;
80 [label=<gini = 0.0<br/>samples = 1<br/>value = [1, 0, 0, 0, 0, 0, 0, 0, 0, 0, 0]>, fillcolor="#e58139"] ;
78 -> 80 ;
81 [label=<gini = 0.0<br/>samples = 2<br/>value = [0, 0, 0, 0, 0, 0, 0, 0, 0, 0, 2]>, fillcolor="#e53950"] ;
75 -> 81 ;
82 [label=<gini = 0.0<br/>samples = 3<br/>value = [3, 0, 0, 0, 0, 0, 0, 0, 0, 0, 0]>, fillcolor="#e58139"] ;
74 -> 82 ;
83 [label=<X<SUB>0</SUB> &le; 0.38<br/>gini = 0.278<br/>samples = 6<br/>value = [0, 0, 0, 0, 0, 0, 0, 0, 1, 5, 0]>, fillcolor="#ea61be"] ;
67 -> 83 ;
84 [label=<X<SUB>1</SUB> &le; 0.228<br/>gini = 0.444<br/>samples = 3<br/>value = [0, 0, 0, 0, 0, 0, 0, 0, 1, 2, 0]>, fillcolor="#f29cd6"] ;
83 -> 84 ;
85 [label=<gini = 0.0<br/>samples = 2<br/>value = [0, 0, 0, 0, 0, 0, 0, 0, 0, 2, 0]>, fillcolor="#e539ae"] ;
84 -> 85 ;
86 [label=<gini = 0.0<br/>samples = 1<br/>value = [0, 0, 0, 0, 0, 0, 0, 0, 1, 0, 0]>, fillcolor="#bd39e5"] ;
84 -> 86 ;
87 [label=<gini = 0.0<br/>samples = 3<br/>value = [0, 0, 0, 0, 0, 0, 0, 0, 0, 3, 0]>, fillcolor="#e539ae"] ;
83 -> 87 ;
88 [label=<X<SUB>1</SUB> &le; 0.292<br/>gini = 0.32<br/>samples = 5<br/>value = [0, 0, 0, 0, 0, 0, 0, 0, 1, 0, 4]>, fillcolor="#ec6a7c"] ;
66 -> 88 ;
89 [label=<gini = 0.0<br/>samples = 1<br/>value = [0, 0, 0, 0, 0, 0, 0, 0, 1, 0, 0]>, fillcolor="#bd39e5"] ;
88 -> 89 ;
90 [label=<gini = 0.0<br/>samples = 4<br/>value = [0, 0, 0, 0, 0, 0, 0, 0, 0, 0, 4]>, fillcolor="#e53950"] ;
88 -> 90 ;
91 [label=<X<SUB>0</SUB> &le; 0.226<br/>gini = 0.628<br/>samples = 82<br/>value = [47, 0, 0, 0, 0, 0, 6, 5, 13, 5, 6]>, fillcolor="#f2c19d"] ;
47 -> 91 ;
92 [label=<X<SUB>1</SUB> &le; 0.808<br/>gini = 0.745<br/>samples = 14<br/>value = [4, 0, 0, 0, 0, 0, 3, 0, 4, 0, 3]>, fillcolor="#ffffff"] ;
91 -> 92 ;
93 [label=<X<SUB>1</SUB> &le; 0.741<br/>gini = 0.667<br/>samples = 9<br/>value = [1, 0, 0, 0, 0, 0, 3, 0, 4, 0, 1]>, fillcolor="#f4defb"] ;
92 -> 93 ;
94 [label=<X<SUB>1</SUB> &le; 0.67<br/>gini = 0.667<br/>samples = 6<br/>value = [1, 0, 0, 0, 0, 0, 3, 0, 1, 0, 1]>, fillcolor="#b0c5f5"] ;
93 -> 94 ;
95 [label=<X<SUB>1</SUB> &le; 0.538<br/>gini = 0.667<br/>samples = 3<br/>value = [1, 0, 0, 0, 0, 0, 0, 0, 1, 0, 1]>, fillcolor="#ffffff"] ;
94 -> 95 ;
96 [label=<gini = 0.0<br/>samples = 1<br/>value = [0, 0, 0, 0, 0, 0, 0, 0, 1, 0, 0]>, fillcolor="#bd39e5"] ;
95 -> 96 ;
97 [label=<X<SUB>0</SUB> &le; 0.204<br/>gini = 0.5<br/>samples = 2<br/>value = [1, 0, 0, 0, 0, 0, 0, 0, 0, 0, 1]>, fillcolor="#ffffff"] ;
95 -> 97 ;
98 [label=<gini = 0.0<br/>samples = 1<br/>value = [0, 0, 0, 0, 0, 0, 0, 0, 0, 0, 1]>, fillcolor="#e53950"] ;
97 -> 98 ;
99 [label=<gini = 0.0<br/>samples = 1<br/>value = [1, 0, 0, 0, 0, 0, 0, 0, 0, 0, 0]>, fillcolor="#e58139"] ;
97 -> 99 ;
100 [label=<gini = 0.0<br/>samples = 3<br/>value = [0, 0, 0, 0, 0, 0, 3, 0, 0, 0, 0]>, fillcolor="#396fe5"] ;
94 -> 100 ;
101 [label=<gini = 0.0<br/>samples = 3<br/>value = [0, 0, 0, 0, 0, 0, 0, 0, 3, 0, 0]>, fillcolor="#bd39e5"] ;
93 -> 101 ;
102 [label=<X<SUB>1</SUB> &le; 0.879<br/>gini = 0.48<br/>samples = 5<br/>value = [3, 0, 0, 0, 0, 0, 0, 0, 0, 0, 2]>, fillcolor="#f6d5bd"] ;
92 -> 102 ;
103 [label=<X<SUB>1</SUB> &le; 0.821<br/>gini = 0.444<br/>samples = 3<br/>value = [1, 0, 0, 0, 0, 0, 0, 0, 0, 0, 2]>, fillcolor="#f29ca8"] ;
102 -> 103 ;
104 [label=<gini = 0.0<br/>samples = 1<br/>value = [1, 0, 0, 0, 0, 0, 0, 0, 0, 0, 0]>, fillcolor="#e58139"] ;
103 -> 104 ;
105 [label=<gini = 0.0<br/>samples = 2<br/>value = [0, 0, 0, 0, 0, 0, 0, 0, 0, 0, 2]>, fillcolor="#e53950"] ;
103 -> 105 ;
106 [label=<gini = 0.0<br/>samples = 2<br/>value = [2, 0, 0, 0, 0, 0, 0, 0, 0, 0, 0]>, fillcolor="#e58139"] ;
102 -> 106 ;
107 [label=<X<SUB>1</SUB> &le; 1.013<br/>gini = 0.568<br/>samples = 68<br/>value = [43, 0, 0, 0, 0, 0, 3, 5, 9, 5, 3]>, fillcolor="#f0b68d"] ;
91 -> 107 ;
108 [label=<X<SUB>0</SUB> &le; 0.297<br/>gini = 0.524<br/>samples = 64<br/>value = [43, 0, 0, 0, 0, 0, 3, 5, 6, 5, 2]>, fillcolor="#eeaf81"] ;
107 -> 108 ;
109 [label=<X<SUB>1</SUB> &le; 0.524<br/>gini = 0.259<br/>samples = 21<br/>value = [18, 0, 0, 0, 0, 0, 0, 1, 1, 1, 0]>, fillcolor="#e99457"] ;
108 -> 109 ;
110 [label=<X<SUB>1</SUB> &le; 0.5<br/>gini = 0.5<br/>samples = 2<br/>value = [1, 0, 0, 0, 0, 0, 0, 1, 0, 0, 0]>, fillcolor="#ffffff"] ;
109 -> 110 ;
111 [label=<gini = 0.0<br/>samples = 1<br/>value = [1, 0, 0, 0, 0, 0, 0, 0, 0, 0, 0]>, fillcolor="#e58139"] ;
110 -> 111 ;
112 [label=<gini = 0.0<br/>samples = 1<br/>value = [0, 0, 0, 0, 0, 0, 0, 1, 0, 0, 0]>, fillcolor="#6139e5"] ;
110 -> 112 ;
113 [label=<X<SUB>0</SUB> &le; 0.273<br/>gini = 0.194<br/>samples = 19<br/>value = [17, 0, 0, 0, 0, 0, 0, 0, 1, 1, 0]>, fillcolor="#e88f4f"] ;
109 -> 113 ;
114 [label=<X<SUB>0</SUB> &le; 0.271<br/>gini = 0.314<br/>samples = 11<br/>value = [9, 0, 0, 0, 0, 0, 0, 0, 1, 1, 0]>, fillcolor="#ea9a61"] ;
113 -> 114 ;
115 [label=<X<SUB>1</SUB> &le; 0.827<br/>gini = 0.18<br/>samples = 10<br/>value = [9, 0, 0, 0, 0, 0, 0, 0, 0, 1, 0]>, fillcolor="#e88f4f"] ;
114 -> 115 ;
116 [label=<gini = 0.0<br/>samples = 7<br/>value = [7, 0, 0, 0, 0, 0, 0, 0, 0, 0, 0]>, fillcolor="#e58139"] ;
115 -> 116 ;
117 [label=<X<SUB>1</SUB> &le; 0.926<br/>gini = 0.444<br/>samples = 3<br/>value = [2, 0, 0, 0, 0, 0, 0, 0, 0, 1, 0]>, fillcolor="#f2c09c"] ;
115 -> 117 ;
118 [label=<gini = 0.0<br/>samples = 1<br/>value = [0, 0, 0, 0, 0, 0, 0, 0, 0, 1, 0]>, fillcolor="#e539ae"] ;
117 -> 118 ;
119 [label=<gini = 0.0<br/>samples = 2<br/>value = [2, 0, 0, 0, 0, 0, 0, 0, 0, 0, 0]>, fillcolor="#e58139"] ;
117 -> 119 ;
120 [label=<gini = 0.0<br/>samples = 1<br/>value = [0, 0, 0, 0, 0, 0, 0, 0, 1, 0, 0]>, fillcolor="#bd39e5"] ;
114 -> 120 ;
121 [label=<gini = 0.0<br/>samples = 8<br/>value = [8, 0, 0, 0, 0, 0, 0, 0, 0, 0, 0]>, fillcolor="#e58139"] ;
113 -> 121 ;
122 [label=<X<SUB>0</SUB> &le; 0.304<br/>gini = 0.624<br/>samples = 43<br/>value = [25, 0, 0, 0, 0, 0, 3, 4, 5, 4, 2]>, fillcolor="#f1bd97"] ;
108 -> 122 ;
123 [label=<gini = 0.0<br/>samples = 3<br/>value = [0, 0, 0, 0, 0, 0, 3, 0, 0, 0, 0]>, fillcolor="#396fe5"] ;
122 -> 123 ;
124 [label=<X<SUB>1</SUB> &le; 0.971<br/>gini = 0.571<br/>samples = 40<br/>value = [25, 0, 0, 0, 0, 0, 0, 4, 5, 4, 2]>, fillcolor="#f0b78e"] ;
122 -> 124 ;
125 [label=<X<SUB>1</SUB> &le; 0.857<br/>gini = 0.535<br/>samples = 38<br/>value = [25, 0, 0, 0, 0, 0, 0, 3, 5, 3, 2]>, fillcolor="#efb387"] ;
124 -> 125 ;
126 [label=<X<SUB>1</SUB> &le; 0.751<br/>gini = 0.614<br/>samples = 31<br/>value = [18, 0, 0, 0, 0, 0, 0, 3, 5, 3, 2]>, fillcolor="#f2c09c"] ;
125 -> 126 ;
127 [label=<X<SUB>0</SUB> &le; 0.384<br/>gini = 0.512<br/>samples = 25<br/>value = [17, 0, 0, 0, 0, 0, 0, 2, 2, 2, 2]>, fillcolor="#eead7e"] ;
126 -> 127 ;
128 [label=<X<SUB>0</SUB> &le; 0.358<br/>gini = 0.432<br/>samples = 19<br/>value = [14, 0, 0, 0, 0, 0, 0, 2, 0, 2, 1]>, fillcolor="#eda673"] ;
127 -> 128 ;
129 [label=<X<SUB>0</SUB> &le; 0.353<br/>gini = 0.597<br/>samples = 12<br/>value = [7, 0, 0, 0, 0, 0, 0, 2, 0, 2, 1]>, fillcolor="#f2c09c"] ;
128 -> 129 ;
130 [label=<X<SUB>0</SUB> &le; 0.349<br/>gini = 0.46<br/>samples = 10<br/>value = [7, 0, 0, 0, 0, 0, 0, 0, 0, 2, 1]>, fillcolor="#efb083"] ;
129 -> 130 ;
131 [label=<X<SUB>0</SUB> &le; 0.318<br/>gini = 0.37<br/>samples = 9<br/>value = [7, 0, 0, 0, 0, 0, 0, 0, 0, 1, 1]>, fillcolor="#eca06a"] ;
130 -> 131 ;
132 [label=<X<SUB>0</SUB> &le; 0.313<br/>gini = 0.5<br/>samples = 2<br/>value = [1, 0, 0, 0, 0, 0, 0, 0, 0, 1, 0]>, fillcolor="#ffffff"] ;
131 -> 132 ;
133 [label=<gini = 0.0<br/>samples = 1<br/>value = [1, 0, 0, 0, 0, 0, 0, 0, 0, 0, 0]>, fillcolor="#e58139"] ;
132 -> 133 ;
134 [label=<gini = 0.0<br/>samples = 1<br/>value = [0, 0, 0, 0, 0, 0, 0, 0, 0, 1, 0]>, fillcolor="#e539ae"] ;
132 -> 134 ;
135 [label=<X<SUB>0</SUB> &le; 0.338<br/>gini = 0.245<br/>samples = 7<br/>value = [6, 0, 0, 0, 0, 0, 0, 0, 0, 0, 1]>, fillcolor="#e9965a"] ;
131 -> 135 ;
136 [label=<gini = 0.0<br/>samples = 5<br/>value = [5, 0, 0, 0, 0, 0, 0, 0, 0, 0, 0]>, fillcolor="#e58139"] ;
135 -> 136 ;
137 [label=<X<SUB>0</SUB> &le; 0.345<br/>gini = 0.5<br/>samples = 2<br/>value = [1, 0, 0, 0, 0, 0, 0, 0, 0, 0, 1]>, fillcolor="#ffffff"] ;
135 -> 137 ;
138 [label=<gini = 0.0<br/>samples = 1<br/>value = [0, 0, 0, 0, 0, 0, 0, 0, 0, 0, 1]>, fillcolor="#e53950"] ;
137 -> 138 ;
139 [label=<gini = 0.0<br/>samples = 1<br/>value = [1, 0, 0, 0, 0, 0, 0, 0, 0, 0, 0]>, fillcolor="#e58139"] ;
137 -> 139 ;
140 [label=<gini = 0.0<br/>samples = 1<br/>value = [0, 0, 0, 0, 0, 0, 0, 0, 0, 1, 0]>, fillcolor="#e539ae"] ;
130 -> 140 ;
141 [label=<gini = 0.0<br/>samples = 2<br/>value = [0, 0, 0, 0, 0, 0, 0, 2, 0, 0, 0]>, fillcolor="#6139e5"] ;
129 -> 141 ;
142 [label=<gini = 0.0<br/>samples = 7<br/>value = [7, 0, 0, 0, 0, 0, 0, 0, 0, 0, 0]>, fillcolor="#e58139"] ;
128 -> 142 ;
143 [label=<X<SUB>1</SUB> &le; 0.546<br/>gini = 0.611<br/>samples = 6<br/>value = [3, 0, 0, 0, 0, 0, 0, 0, 2, 0, 1]>, fillcolor="#f8e0ce"] ;
127 -> 143 ;
144 [label=<X<SUB>0</SUB> &le; 0.391<br/>gini = 0.375<br/>samples = 4<br/>value = [3, 0, 0, 0, 0, 0, 0, 0, 1, 0, 0]>, fillcolor="#eeab7b"] ;
143 -> 144 ;
145 [label=<gini = 0.0<br/>samples = 1<br/>value = [0, 0, 0, 0, 0, 0, 0, 0, 1, 0, 0]>, fillcolor="#bd39e5"] ;
144 -> 145 ;
146 [label=<gini = 0.0<br/>samples = 3<br/>value = [3, 0, 0, 0, 0, 0, 0, 0, 0, 0, 0]>, fillcolor="#e58139"] ;
144 -> 146 ;
147 [label=<X<SUB>1</SUB> &le; 0.633<br/>gini = 0.5<br/>samples = 2<br/>value = [0, 0, 0, 0, 0, 0, 0, 0, 1, 0, 1]>, fillcolor="#ffffff"] ;
143 -> 147 ;
148 [label=<gini = 0.0<br/>samples = 1<br/>value = [0, 0, 0, 0, 0, 0, 0, 0, 0, 0, 1]>, fillcolor="#e53950"] ;
147 -> 148 ;
149 [label=<gini = 0.0<br/>samples = 1<br/>value = [0, 0, 0, 0, 0, 0, 0, 0, 1, 0, 0]>, fillcolor="#bd39e5"] ;
147 -> 149 ;
150 [label=<X<SUB>1</SUB> &le; 0.788<br/>gini = 0.667<br/>samples = 6<br/>value = [1, 0, 0, 0, 0, 0, 0, 1, 3, 1, 0]>, fillcolor="#e5b0f5"] ;
126 -> 150 ;
151 [label=<gini = 0.0<br/>samples = 3<br/>value = [0, 0, 0, 0, 0, 0, 0, 0, 3, 0, 0]>, fillcolor="#bd39e5"] ;
150 -> 151 ;
152 [label=<X<SUB>0</SUB> &le; 0.332<br/>gini = 0.667<br/>samples = 3<br/>value = [1, 0, 0, 0, 0, 0, 0, 1, 0, 1, 0]>, fillcolor="#ffffff"] ;
150 -> 152 ;
153 [label=<gini = 0.0<br/>samples = 1<br/>value = [1, 0, 0, 0, 0, 0, 0, 0, 0, 0, 0]>, fillcolor="#e58139"] ;
152 -> 153 ;
154 [label=<X<SUB>1</SUB> &le; 0.84<br/>gini = 0.5<br/>samples = 2<br/>value = [0, 0, 0, 0, 0, 0, 0, 1, 0, 1, 0]>, fillcolor="#ffffff"] ;
152 -> 154 ;
155 [label=<gini = 0.0<br/>samples = 1<br/>value = [0, 0, 0, 0, 0, 0, 0, 1, 0, 0, 0]>, fillcolor="#6139e5"] ;
154 -> 155 ;
156 [label=<gini = 0.0<br/>samples = 1<br/>value = [0, 0, 0, 0, 0, 0, 0, 0, 0, 1, 0]>, fillcolor="#e539ae"] ;
154 -> 156 ;
157 [label=<gini = 0.0<br/>samples = 7<br/>value = [7, 0, 0, 0, 0, 0, 0, 0, 0, 0, 0]>, fillcolor="#e58139"] ;
125 -> 157 ;
158 [label=<X<SUB>0</SUB> &le; 0.375<br/>gini = 0.5<br/>samples = 2<br/>value = [0, 0, 0, 0, 0, 0, 0, 1, 0, 1, 0]>, fillcolor="#ffffff"] ;
124 -> 158 ;
159 [label=<gini = 0.0<br/>samples = 1<br/>value = [0, 0, 0, 0, 0, 0, 0, 1, 0, 0, 0]>, fillcolor="#6139e5"] ;
158 -> 159 ;
160 [label=<gini = 0.0<br/>samples = 1<br/>value = [0, 0, 0, 0, 0, 0, 0, 0, 0, 1, 0]>, fillcolor="#e539ae"] ;
158 -> 160 ;
161 [label=<X<SUB>1</SUB> &le; 1.042<br/>gini = 0.375<br/>samples = 4<br/>value = [0, 0, 0, 0, 0, 0, 0, 0, 3, 0, 1]>, fillcolor="#d37bee"] ;
107 -> 161 ;
162 [label=<gini = 0.0<br/>samples = 3<br/>value = [0, 0, 0, 0, 0, 0, 0, 0, 3, 0, 0]>, fillcolor="#bd39e5"] ;
161 -> 162 ;
163 [label=<gini = 0.0<br/>samples = 1<br/>value = [0, 0, 0, 0, 0, 0, 0, 0, 0, 0, 1]>, fillcolor="#e53950"] ;
161 -> 163 ;
164 [label=<X<SUB>1</SUB> &le; 0.928<br/>gini = 0.198<br/>samples = 9<br/>value = [0, 0, 0, 0, 0, 8, 0, 0, 0, 1, 0]>, fillcolor="#52d4e8"] ;
46 -> 164 ;
165 [label=<gini = 0.0<br/>samples = 8<br/>value = [0, 0, 0, 0, 0, 8, 0, 0, 0, 0, 0]>, fillcolor="#39cee5"] ;
164 -> 165 ;
166 [label=<gini = 0.0<br/>samples = 1<br/>value = [0, 0, 0, 0, 0, 0, 0, 0, 0, 1, 0]>, fillcolor="#e539ae"] ;
164 -> 166 ;
167 [label=<X<SUB>1</SUB> &le; 0.988<br/>gini = 0.502<br/>samples = 145<br/>value = [95, 0, 0, 0, 0, 0, 0, 0, 37, 6, 7]>, fillcolor="#f1bb95"] ;
45 -> 167 ;
168 [label=<X<SUB>1</SUB> &le; 0.706<br/>gini = 0.471<br/>samples = 137<br/>value = [94, 0, 0, 0, 0, 0, 0, 0, 32, 5, 6]>, fillcolor="#f0b58a"] ;
167 -> 168 ;
169 [label=<X<SUB>1</SUB> &le; 0.663<br/>gini = 0.498<br/>samples = 100<br/>value = [64, 0, 0, 0, 0, 0, 0, 0, 30, 1, 5]>, fillcolor="#f2c29f"] ;
168 -> 169 ;
170 [label=<X<SUB>1</SUB> &le; 0.046<br/>gini = 0.474<br/>samples = 95<br/>value = [64, 0, 0, 0, 0, 0, 0, 0, 25, 1, 5]>, fillcolor="#f1b991"] ;
169 -> 170 ;
171 [label=<X<SUB>0</SUB> &le; 0.685<br/>gini = 0.719<br/>samples = 8<br/>value = [2, 0, 0, 0, 0, 0, 0, 0, 2, 1, 3]>, fillcolor="#fbdee2"] ;
170 -> 171 ;
172 [label=<X<SUB>1</SUB> &le; 0.015<br/>gini = 0.611<br/>samples = 6<br/>value = [2, 0, 0, 0, 0, 0, 0, 0, 0, 1, 3]>, fillcolor="#f8ced3"] ;
171 -> 172 ;
173 [label=<gini = 0.0<br/>samples = 2<br/>value = [2, 0, 0, 0, 0, 0, 0, 0, 0, 0, 0]>, fillcolor="#e58139"] ;
172 -> 173 ;
174 [label=<X<SUB>0</SUB> &le; 0.507<br/>gini = 0.375<br/>samples = 4<br/>value = [0, 0, 0, 0, 0, 0, 0, 0, 0, 1, 3]>, fillcolor="#ee7b8a"] ;
172 -> 174 ;
175 [label=<gini = 0.0<br/>samples = 2<br/>value = [0, 0, 0, 0, 0, 0, 0, 0, 0, 0, 2]>, fillcolor="#e53950"] ;
174 -> 175 ;
176 [label=<X<SUB>1</SUB> &le; 0.028<br/>gini = 0.5<br/>samples = 2<br/>value = [0, 0, 0, 0, 0, 0, 0, 0, 0, 1, 1]>, fillcolor="#ffffff"] ;
174 -> 176 ;
177 [label=<gini = 0.0<br/>samples = 1<br/>value = [0, 0, 0, 0, 0, 0, 0, 0, 0, 0, 1]>, fillcolor="#e53950"] ;
176 -> 177 ;
178 [label=<gini = 0.0<br/>samples = 1<br/>value = [0, 0, 0, 0, 0, 0, 0, 0, 0, 1, 0]>, fillcolor="#e539ae"] ;
176 -> 178 ;
179 [label=<gini = 0.0<br/>samples = 2<br/>value = [0, 0, 0, 0, 0, 0, 0, 0, 2, 0, 0]>, fillcolor="#bd39e5"] ;
171 -> 179 ;
180 [label=<X<SUB>1</SUB> &le; 0.257<br/>gini = 0.422<br/>samples = 87<br/>value = [62, 0, 0, 0, 0, 0, 0, 0, 23, 0, 2]>, fillcolor="#efb286"] ;
170 -> 180 ;
181 [label=<X<SUB>0</SUB> &le; 0.449<br/>gini = 0.165<br/>samples = 33<br/>value = [30, 0, 0, 0, 0, 0, 0, 0, 3, 0, 0]>, fillcolor="#e88e4d"] ;
180 -> 181 ;
182 [label=<X<SUB>1</SUB> &le; 0.093<br/>gini = 0.5<br/>samples = 2<br/>value = [1, 0, 0, 0, 0, 0, 0, 0, 1, 0, 0]>, fillcolor="#ffffff"] ;
181 -> 182 ;
183 [label=<gini = 0.0<br/>samples = 1<br/>value = [1, 0, 0, 0, 0, 0, 0, 0, 0, 0, 0]>, fillcolor="#e58139"] ;
182 -> 183 ;
184 [label=<gini = 0.0<br/>samples = 1<br/>value = [0, 0, 0, 0, 0, 0, 0, 0, 1, 0, 0]>, fillcolor="#bd39e5"] ;
182 -> 184 ;
185 [label=<X<SUB>0</SUB> &le; 0.695<br/>gini = 0.121<br/>samples = 31<br/>value = [29, 0, 0, 0, 0, 0, 0, 0, 2, 0, 0]>, fillcolor="#e78a47"] ;
181 -> 185 ;
186 [label=<X<SUB>1</SUB> &le; 0.185<br/>gini = 0.071<br/>samples = 27<br/>value = [26, 0, 0, 0, 0, 0, 0, 0, 1, 0, 0]>, fillcolor="#e68641"] ;
185 -> 186 ;
187 [label=<gini = 0.0<br/>samples = 21<br/>value = [21, 0, 0, 0, 0, 0, 0, 0, 0, 0, 0]>, fillcolor="#e58139"] ;
186 -> 187 ;
188 [label=<X<SUB>1</SUB> &le; 0.204<br/>gini = 0.278<br/>samples = 6<br/>value = [5, 0, 0, 0, 0, 0, 0, 0, 1, 0, 0]>, fillcolor="#ea9a61"] ;
186 -> 188 ;
189 [label=<gini = 0.0<br/>samples = 1<br/>value = [0, 0, 0, 0, 0, 0, 0, 0, 1, 0, 0]>, fillcolor="#bd39e5"] ;
188 -> 189 ;
190 [label=<gini = 0.0<br/>samples = 5<br/>value = [5, 0, 0, 0, 0, 0, 0, 0, 0, 0, 0]>, fillcolor="#e58139"] ;
188 -> 190 ;
191 [label=<X<SUB>0</SUB> &le; 0.701<br/>gini = 0.375<br/>samples = 4<br/>value = [3, 0, 0, 0, 0, 0, 0, 0, 1, 0, 0]>, fillcolor="#eeab7b"] ;
185 -> 191 ;
192 [label=<gini = 0.0<br/>samples = 1<br/>value = [0, 0, 0, 0, 0, 0, 0, 0, 1, 0, 0]>, fillcolor="#bd39e5"] ;
191 -> 192 ;
193 [label=<gini = 0.0<br/>samples = 3<br/>value = [3, 0, 0, 0, 0, 0, 0, 0, 0, 0, 0]>, fillcolor="#e58139"] ;
191 -> 193 ;
194 [label=<X<SUB>1</SUB> &le; 0.37<br/>gini = 0.51<br/>samples = 54<br/>value = [32, 0, 0, 0, 0, 0, 0, 0, 20, 0, 2]>, fillcolor="#f6d3b9"] ;
180 -> 194 ;
195 [label=<X<SUB>0</SUB> &le; 0.588<br/>gini = 0.465<br/>samples = 19<br/>value = [7, 0, 0, 0, 0, 0, 0, 0, 12, 0, 0]>, fillcolor="#e3acf4"] ;
194 -> 195 ;
196 [label=<gini = 0.0<br/>samples = 12<br/>value = [0, 0, 0, 0, 0, 0, 0, 0, 12, 0, 0]>, fillcolor="#bd39e5"] ;
195 -> 196 ;
197 [label=<gini = 0.0<br/>samples = 7<br/>value = [7, 0, 0, 0, 0, 0, 0, 0, 0, 0, 0]>, fillcolor="#e58139"] ;
195 -> 197 ;
198 [label=<X<SUB>0</SUB> &le; 0.695<br/>gini = 0.434<br/>samples = 35<br/>value = [25, 0, 0, 0, 0, 0, 0, 0, 8, 0, 2]>, fillcolor="#efb082"] ;
194 -> 198 ;
199 [label=<X<SUB>1</SUB> &le; 0.504<br/>gini = 0.398<br/>samples = 32<br/>value = [24, 0, 0, 0, 0, 0, 0, 0, 6, 0, 2]>, fillcolor="#eda876"] ;
198 -> 199 ;
200 [label=<gini = 0.0<br/>samples = 11<br/>value = [11, 0, 0, 0, 0, 0, 0, 0, 0, 0, 0]>, fillcolor="#e58139"] ;
199 -> 200 ;
201 [label=<X<SUB>1</SUB> &le; 0.545<br/>gini = 0.526<br/>samples = 21<br/>value = [13, 0, 0, 0, 0, 0, 0, 0, 6, 0, 2]>, fillcolor="#f3c4a3"] ;
199 -> 201 ;
202 [label=<X<SUB>0</SUB> &le; 0.56<br/>gini = 0.444<br/>samples = 3<br/>value = [0, 0, 0, 0, 0, 0, 0, 0, 1, 0, 2]>, fillcolor="#f29ca8"] ;
201 -> 202 ;
203 [label=<gini = 0.0<br/>samples = 1<br/>value = [0, 0, 0, 0, 0, 0, 0, 0, 1, 0, 0]>, fillcolor="#bd39e5"] ;
202 -> 203 ;
204 [label=<gini = 0.0<br/>samples = 2<br/>value = [0, 0, 0, 0, 0, 0, 0, 0, 0, 0, 2]>, fillcolor="#e53950"] ;
202 -> 204 ;
205 [label=<X<SUB>1</SUB> &le; 0.627<br/>gini = 0.401<br/>samples = 18<br/>value = [13, 0, 0, 0, 0, 0, 0, 0, 5, 0, 0]>, fillcolor="#efb185"] ;
201 -> 205 ;
206 [label=<X<SUB>1</SUB> &le; 0.579<br/>gini = 0.278<br/>samples = 12<br/>value = [10, 0, 0, 0, 0, 0, 0, 0, 2, 0, 0]>, fillcolor="#ea9a61"] ;
205 -> 206 ;
207 [label=<X<SUB>1</SUB> &le; 0.575<br/>gini = 0.444<br/>samples = 6<br/>value = [4, 0, 0, 0, 0, 0, 0, 0, 2, 0, 0]>, fillcolor="#f2c09c"] ;
206 -> 207 ;
208 [label=<gini = 0.0<br/>samples = 4<br/>value = [4, 0, 0, 0, 0, 0, 0, 0, 0, 0, 0]>, fillcolor="#e58139"] ;
207 -> 208 ;
209 [label=<gini = 0.0<br/>samples = 2<br/>value = [0, 0, 0, 0, 0, 0, 0, 0, 2, 0, 0]>, fillcolor="#bd39e5"] ;
207 -> 209 ;
210 [label=<gini = 0.0<br/>samples = 6<br/>value = [6, 0, 0, 0, 0, 0, 0, 0, 0, 0, 0]>, fillcolor="#e58139"] ;
206 -> 210 ;
211 [label=<X<SUB>1</SUB> &le; 0.646<br/>gini = 0.5<br/>samples = 6<br/>value = [3, 0, 0, 0, 0, 0, 0, 0, 3, 0, 0]>, fillcolor="#ffffff"] ;
205 -> 211 ;
212 [label=<gini = 0.0<br/>samples = 3<br/>value = [0, 0, 0, 0, 0, 0, 0, 0, 3, 0, 0]>, fillcolor="#bd39e5"] ;
211 -> 212 ;
213 [label=<gini = 0.0<br/>samples = 3<br/>value = [3, 0, 0, 0, 0, 0, 0, 0, 0, 0, 0]>, fillcolor="#e58139"] ;
211 -> 213 ;
214 [label=<X<SUB>1</SUB> &le; 0.554<br/>gini = 0.444<br/>samples = 3<br/>value = [1, 0, 0, 0, 0, 0, 0, 0, 2, 0, 0]>, fillcolor="#de9cf2"] ;
198 -> 214 ;
215 [label=<gini = 0.0<br/>samples = 2<br/>value = [0, 0, 0, 0, 0, 0, 0, 0, 2, 0, 0]>, fillcolor="#bd39e5"] ;
214 -> 215 ;
216 [label=<gini = 0.0<br/>samples = 1<br/>value = [1, 0, 0, 0, 0, 0, 0, 0, 0, 0, 0]>, fillcolor="#e58139"] ;
214 -> 216 ;
217 [label=<gini = 0.0<br/>samples = 5<br/>value = [0, 0, 0, 0, 0, 0, 0, 0, 5, 0, 0]>, fillcolor="#bd39e5"] ;
169 -> 217 ;
218 [label=<X<SUB>1</SUB> &le; 0.82<br/>gini = 0.327<br/>samples = 37<br/>value = [30, 0, 0, 0, 0, 0, 0, 0, 2, 4, 1]>, fillcolor="#eb9c63"] ;
168 -> 218 ;
219 [label=<X<SUB>1</SUB> &le; 0.77<br/>gini = 0.111<br/>samples = 17<br/>value = [16, 0, 0, 0, 0, 0, 0, 0, 1, 0, 0]>, fillcolor="#e78945"] ;
218 -> 219 ;
220 [label=<gini = 0.0<br/>samples = 12<br/>value = [12, 0, 0, 0, 0, 0, 0, 0, 0, 0, 0]>, fillcolor="#e58139"] ;
219 -> 220 ;
221 [label=<X<SUB>1</SUB> &le; 0.79<br/>gini = 0.32<br/>samples = 5<br/>value = [4, 0, 0, 0, 0, 0, 0, 0, 1, 0, 0]>, fillcolor="#eca06a"] ;
219 -> 221 ;
222 [label=<gini = 0.0<br/>samples = 1<br/>value = [0, 0, 0, 0, 0, 0, 0, 0, 1, 0, 0]>, fillcolor="#bd39e5"] ;
221 -> 222 ;
223 [label=<gini = 0.0<br/>samples = 4<br/>value = [4, 0, 0, 0, 0, 0, 0, 0, 0, 0, 0]>, fillcolor="#e58139"] ;
221 -> 223 ;
224 [label=<X<SUB>1</SUB> &le; 0.862<br/>gini = 0.465<br/>samples = 20<br/>value = [14, 0, 0, 0, 0, 0, 0, 0, 1, 4, 1]>, fillcolor="#efb083"] ;
218 -> 224 ;
225 [label=<X<SUB>1</SUB> &le; 0.834<br/>gini = 0.375<br/>samples = 4<br/>value = [0, 0, 0, 0, 0, 0, 0, 0, 0, 3, 1]>, fillcolor="#ee7bc9"] ;
224 -> 225 ;
226 [label=<gini = 0.0<br/>samples = 1<br/>value = [0, 0, 0, 0, 0, 0, 0, 0, 0, 0, 1]>, fillcolor="#e53950"] ;
225 -> 226 ;
227 [label=<gini = 0.0<br/>samples = 3<br/>value = [0, 0, 0, 0, 0, 0, 0, 0, 0, 3, 0]>, fillcolor="#e539ae"] ;
225 -> 227 ;
228 [label=<X<SUB>1</SUB> &le; 0.984<br/>gini = 0.227<br/>samples = 16<br/>value = [14, 0, 0, 0, 0, 0, 0, 0, 1, 1, 0]>, fillcolor="#e89253"] ;
224 -> 228 ;
229 [label=<X<SUB>1</SUB> &le; 0.957<br/>gini = 0.133<br/>samples = 14<br/>value = [13, 0, 0, 0, 0, 0, 0, 0, 1, 0, 0]>, fillcolor="#e78b48"] ;
228 -> 229 ;
230 [label=<gini = 0.0<br/>samples = 10<br/>value = [10, 0, 0, 0, 0, 0, 0, 0, 0, 0, 0]>, fillcolor="#e58139"] ;
229 -> 230 ;
231 [label=<X<SUB>0</SUB> &le; 0.658<br/>gini = 0.375<br/>samples = 4<br/>value = [3, 0, 0, 0, 0, 0, 0, 0, 1, 0, 0]>, fillcolor="#eeab7b"] ;
229 -> 231 ;
232 [label=<gini = 0.0<br/>samples = 3<br/>value = [3, 0, 0, 0, 0, 0, 0, 0, 0, 0, 0]>, fillcolor="#e58139"] ;
231 -> 232 ;
233 [label=<gini = 0.0<br/>samples = 1<br/>value = [0, 0, 0, 0, 0, 0, 0, 0, 1, 0, 0]>, fillcolor="#bd39e5"] ;
231 -> 233 ;
234 [label=<X<SUB>1</SUB> &le; 0.985<br/>gini = 0.5<br/>samples = 2<br/>value = [1, 0, 0, 0, 0, 0, 0, 0, 0, 1, 0]>, fillcolor="#ffffff"] ;
228 -> 234 ;
235 [label=<gini = 0.0<br/>samples = 1<br/>value = [0, 0, 0, 0, 0, 0, 0, 0, 0, 1, 0]>, fillcolor="#e539ae"] ;
234 -> 235 ;
236 [label=<gini = 0.0<br/>samples = 1<br/>value = [1, 0, 0, 0, 0, 0, 0, 0, 0, 0, 0]>, fillcolor="#e58139"] ;
234 -> 236 ;
237 [label=<X<SUB>0</SUB> &le; 0.613<br/>gini = 0.562<br/>samples = 8<br/>value = [1, 0, 0, 0, 0, 0, 0, 0, 5, 1, 1]>, fillcolor="#d98ef0"] ;
167 -> 237 ;
238 [label=<gini = 0.0<br/>samples = 5<br/>value = [0, 0, 0, 0, 0, 0, 0, 0, 5, 0, 0]>, fillcolor="#bd39e5"] ;
237 -> 238 ;
239 [label=<X<SUB>0</SUB> &le; 0.627<br/>gini = 0.667<br/>samples = 3<br/>value = [1, 0, 0, 0, 0, 0, 0, 0, 0, 1, 1]>, fillcolor="#ffffff"] ;
237 -> 239 ;
240 [label=<gini = 0.0<br/>samples = 1<br/>value = [0, 0, 0, 0, 0, 0, 0, 0, 0, 1, 0]>, fillcolor="#e539ae"] ;
239 -> 240 ;
241 [label=<X<SUB>1</SUB> &le; 1.037<br/>gini = 0.5<br/>samples = 2<br/>value = [1, 0, 0, 0, 0, 0, 0, 0, 0, 0, 1]>, fillcolor="#ffffff"] ;
239 -> 241 ;
242 [label=<gini = 0.0<br/>samples = 1<br/>value = [1, 0, 0, 0, 0, 0, 0, 0, 0, 0, 0]>, fillcolor="#e58139"] ;
241 -> 242 ;
243 [label=<gini = 0.0<br/>samples = 1<br/>value = [0, 0, 0, 0, 0, 0, 0, 0, 0, 0, 1]>, fillcolor="#e53950"] ;
241 -> 243 ;
244 [label=<X<SUB>0</SUB> &le; 0.857<br/>gini = 0.732<br/>samples = 149<br/>value = [59, 0, 0, 0, 0, 3, 4, 0, 31, 34, 18]>, fillcolor="#f9e4d4"] ;
8 -> 244 ;
245 [label=<X<SUB>1</SUB> &le; 0.344<br/>gini = 0.741<br/>samples = 78<br/>value = [24, 0, 0, 0, 0, 3, 0, 0, 12, 26, 13]>, fillcolor="#fef8fc"] ;
244 -> 245 ;
246 [label=<X<SUB>1</SUB> &le; 0.048<br/>gini = 0.639<br/>samples = 26<br/>value = [0, 0, 0, 0, 0, 0, 0, 0, 6, 12, 8]>, fillcolor="#f9d3ed"] ;
245 -> 246 ;
247 [label=<gini = 0.0<br/>samples = 3<br/>value = [0, 0, 0, 0, 0, 0, 0, 0, 0, 0, 3]>, fillcolor="#e53950"] ;
246 -> 247 ;
248 [label=<X<SUB>0</SUB> &le; 0.843<br/>gini = 0.612<br/>samples = 23<br/>value = [0, 0, 0, 0, 0, 0, 0, 0, 6, 12, 5]>, fillcolor="#f6b9e2"] ;
246 -> 248 ;
249 [label=<X<SUB>0</SUB> &le; 0.745<br/>gini = 0.58<br/>samples = 21<br/>value = [0, 0, 0, 0, 0, 0, 0, 0, 4, 12, 5]>, fillcolor="#f4a8dc"] ;
248 -> 249 ;
250 [label=<X<SUB>0</SUB> &le; 0.728<br/>gini = 0.593<br/>samples = 9<br/>value = [0, 0, 0, 0, 0, 0, 0, 0, 4, 4, 1]>, fillcolor="#ffffff"] ;
249 -> 250 ;
251 [label=<X<SUB>1</SUB> &le; 0.178<br/>gini = 0.32<br/>samples = 5<br/>value = [0, 0, 0, 0, 0, 0, 0, 0, 1, 4, 0]>, fillcolor="#ec6ac2"] ;
250 -> 251 ;
252 [label=<X<SUB>1</SUB> &le; 0.12<br/>gini = 0.5<br/>samples = 2<br/>value = [0, 0, 0, 0, 0, 0, 0, 0, 1, 1, 0]>, fillcolor="#ffffff"] ;
251 -> 252 ;
253 [label=<gini = 0.0<br/>samples = 1<br/>value = [0, 0, 0, 0, 0, 0, 0, 0, 0, 1, 0]>, fillcolor="#e539ae"] ;
252 -> 253 ;
254 [label=<gini = 0.0<br/>samples = 1<br/>value = [0, 0, 0, 0, 0, 0, 0, 0, 1, 0, 0]>, fillcolor="#bd39e5"] ;
252 -> 254 ;
255 [label=<gini = 0.0<br/>samples = 3<br/>value = [0, 0, 0, 0, 0, 0, 0, 0, 0, 3, 0]>, fillcolor="#e539ae"] ;
251 -> 255 ;
256 [label=<X<SUB>1</SUB> &le; 0.242<br/>gini = 0.375<br/>samples = 4<br/>value = [0, 0, 0, 0, 0, 0, 0, 0, 3, 0, 1]>, fillcolor="#d37bee"] ;
250 -> 256 ;
257 [label=<X<SUB>0</SUB> &le; 0.733<br/>gini = 0.5<br/>samples = 2<br/>value = [0, 0, 0, 0, 0, 0, 0, 0, 1, 0, 1]>, fillcolor="#ffffff"] ;
256 -> 257 ;
258 [label=<gini = 0.0<br/>samples = 1<br/>value = [0, 0, 0, 0, 0, 0, 0, 0, 1, 0, 0]>, fillcolor="#bd39e5"] ;
257 -> 258 ;
259 [label=<gini = 0.0<br/>samples = 1<br/>value = [0, 0, 0, 0, 0, 0, 0, 0, 0, 0, 1]>, fillcolor="#e53950"] ;
257 -> 259 ;
260 [label=<gini = 0.0<br/>samples = 2<br/>value = [0, 0, 0, 0, 0, 0, 0, 0, 2, 0, 0]>, fillcolor="#bd39e5"] ;
256 -> 260 ;
261 [label=<X<SUB>0</SUB> &le; 0.838<br/>gini = 0.444<br/>samples = 12<br/>value = [0, 0, 0, 0, 0, 0, 0, 0, 0, 8, 4]>, fillcolor="#f29cd6"] ;
249 -> 261 ;
262 [label=<X<SUB>1</SUB> &le; 0.274<br/>gini = 0.397<br/>samples = 11<br/>value = [0, 0, 0, 0, 0, 0, 0, 0, 0, 8, 3]>, fillcolor="#ef83cc"] ;
261 -> 262 ;
263 [label=<X<SUB>1</SUB> &le; 0.141<br/>gini = 0.49<br/>samples = 7<br/>value = [0, 0, 0, 0, 0, 0, 0, 0, 0, 4, 3]>, fillcolor="#f8ceeb"] ;
262 -> 263 ;
264 [label=<gini = 0.0<br/>samples = 2<br/>value = [0, 0, 0, 0, 0, 0, 0, 0, 0, 2, 0]>, fillcolor="#e539ae"] ;
263 -> 264 ;
265 [label=<X<SUB>1</SUB> &le; 0.201<br/>gini = 0.48<br/>samples = 5<br/>value = [0, 0, 0, 0, 0, 0, 0, 0, 0, 2, 3]>, fillcolor="#f6bdc5"] ;
263 -> 265 ;
266 [label=<gini = 0.0<br/>samples = 2<br/>value = [0, 0, 0, 0, 0, 0, 0, 0, 0, 0, 2]>, fillcolor="#e53950"] ;
265 -> 266 ;
267 [label=<X<SUB>1</SUB> &le; 0.243<br/>gini = 0.444<br/>samples = 3<br/>value = [0, 0, 0, 0, 0, 0, 0, 0, 0, 2, 1]>, fillcolor="#f29cd6"] ;
265 -> 267 ;
268 [label=<gini = 0.0<br/>samples = 2<br/>value = [0, 0, 0, 0, 0, 0, 0, 0, 0, 2, 0]>, fillcolor="#e539ae"] ;
267 -> 268 ;
269 [label=<gini = 0.0<br/>samples = 1<br/>value = [0, 0, 0, 0, 0, 0, 0, 0, 0, 0, 1]>, fillcolor="#e53950"] ;
267 -> 269 ;
270 [label=<gini = 0.0<br/>samples = 4<br/>value = [0, 0, 0, 0, 0, 0, 0, 0, 0, 4, 0]>, fillcolor="#e539ae"] ;
262 -> 270 ;
271 [label=<gini = 0.0<br/>samples = 1<br/>value = [0, 0, 0, 0, 0, 0, 0, 0, 0, 0, 1]>, fillcolor="#e53950"] ;
261 -> 271 ;
272 [label=<gini = 0.0<br/>samples = 2<br/>value = [0, 0, 0, 0, 0, 0, 0, 0, 2, 0, 0]>, fillcolor="#bd39e5"] ;
248 -> 272 ;
273 [label=<X<SUB>0</SUB> &le; 0.831<br/>gini = 0.689<br/>samples = 52<br/>value = [24, 0, 0, 0, 0, 3, 0, 0, 6, 14, 5]>, fillcolor="#f8decb"] ;
245 -> 273 ;
274 [label=<X<SUB>1</SUB> &le; 0.962<br/>gini = 0.619<br/>samples = 42<br/>value = [23, 0, 0, 0, 0, 3, 0, 0, 3, 11, 2]>, fillcolor="#f5ceb2"] ;
273 -> 274 ;
275 [label=<X<SUB>0</SUB> &le; 0.771<br/>gini = 0.593<br/>samples = 35<br/>value = [21, 0, 0, 0, 0, 3, 0, 0, 3, 6, 2]>, fillcolor="#f2be99"] ;
274 -> 275 ;
276 [label=<X<SUB>0</SUB> &le; 0.74<br/>gini = 0.747<br/>samples = 18<br/>value = [7, 0, 0, 0, 0, 3, 0, 0, 2, 4, 2]>, fillcolor="#f9e4d5"] ;
275 -> 276 ;
277 [label=<X<SUB>0</SUB> &le; 0.733<br/>gini = 0.529<br/>samples = 11<br/>value = [7, 0, 0, 0, 0, 0, 0, 0, 2, 0, 2]>, fillcolor="#f1b991"] ;
276 -> 277 ;
278 [label=<X<SUB>0</SUB> &le; 0.718<br/>gini = 0.245<br/>samples = 7<br/>value = [6, 0, 0, 0, 0, 0, 0, 0, 1, 0, 0]>, fillcolor="#e9965a"] ;
277 -> 278 ;
279 [label=<X<SUB>0</SUB> &le; 0.717<br/>gini = 0.5<br/>samples = 2<br/>value = [1, 0, 0, 0, 0, 0, 0, 0, 1, 0, 0]>, fillcolor="#ffffff"] ;
278 -> 279 ;
280 [label=<gini = 0.0<br/>samples = 1<br/>value = [1, 0, 0, 0, 0, 0, 0, 0, 0, 0, 0]>, fillcolor="#e58139"] ;
279 -> 280 ;
281 [label=<gini = 0.0<br/>samples = 1<br/>value = [0, 0, 0, 0, 0, 0, 0, 0, 1, 0, 0]>, fillcolor="#bd39e5"] ;
279 -> 281 ;
282 [label=<gini = 0.0<br/>samples = 5<br/>value = [5, 0, 0, 0, 0, 0, 0, 0, 0, 0, 0]>, fillcolor="#e58139"] ;
278 -> 282 ;
283 [label=<X<SUB>1</SUB> &le; 0.468<br/>gini = 0.625<br/>samples = 4<br/>value = [1, 0, 0, 0, 0, 0, 0, 0, 1, 0, 2]>, fillcolor="#f6bdc5"] ;
277 -> 283 ;
284 [label=<gini = 0.0<br/>samples = 1<br/>value = [1, 0, 0, 0, 0, 0, 0, 0, 0, 0, 0]>, fillcolor="#e58139"] ;
283 -> 284 ;
285 [label=<X<SUB>0</SUB> &le; 0.734<br/>gini = 0.444<br/>samples = 3<br/>value = [0, 0, 0, 0, 0, 0, 0, 0, 1, 0, 2]>, fillcolor="#f29ca8"] ;
283 -> 285 ;
286 [label=<gini = 0.0<br/>samples = 1<br/>value = [0, 0, 0, 0, 0, 0, 0, 0, 0, 0, 1]>, fillcolor="#e53950"] ;
285 -> 286 ;
287 [label=<X<SUB>0</SUB> &le; 0.735<br/>gini = 0.5<br/>samples = 2<br/>value = [0, 0, 0, 0, 0, 0, 0, 0, 1, 0, 1]>, fillcolor="#ffffff"] ;
285 -> 287 ;
288 [label=<gini = 0.0<br/>samples = 1<br/>value = [0, 0, 0, 0, 0, 0, 0, 0, 1, 0, 0]>, fillcolor="#bd39e5"] ;
287 -> 288 ;
289 [label=<gini = 0.0<br/>samples = 1<br/>value = [0, 0, 0, 0, 0, 0, 0, 0, 0, 0, 1]>, fillcolor="#e53950"] ;
287 -> 289 ;
290 [label=<X<SUB>0</SUB> &le; 0.764<br/>gini = 0.49<br/>samples = 7<br/>value = [0, 0, 0, 0, 0, 3, 0, 0, 0, 4, 0]>, fillcolor="#f8ceeb"] ;
276 -> 290 ;
291 [label=<gini = 0.0<br/>samples = 4<br/>value = [0, 0, 0, 0, 0, 0, 0, 0, 0, 4, 0]>, fillcolor="#e539ae"] ;
290 -> 291 ;
292 [label=<gini = 0.0<br/>samples = 3<br/>value = [0, 0, 0, 0, 0, 3, 0, 0, 0, 0, 0]>, fillcolor="#39cee5"] ;
290 -> 292 ;
293 [label=<X<SUB>1</SUB> &le; 0.453<br/>gini = 0.304<br/>samples = 17<br/>value = [14, 0, 0, 0, 0, 0, 0, 0, 1, 2, 0]>, fillcolor="#ea9a61"] ;
275 -> 293 ;
294 [label=<X<SUB>0</SUB> &le; 0.818<br/>gini = 0.444<br/>samples = 3<br/>value = [1, 0, 0, 0, 0, 0, 0, 0, 0, 2, 0]>, fillcolor="#f29cd6"] ;
293 -> 294 ;
295 [label=<gini = 0.0<br/>samples = 2<br/>value = [0, 0, 0, 0, 0, 0, 0, 0, 0, 2, 0]>, fillcolor="#e539ae"] ;
294 -> 295 ;
296 [label=<gini = 0.0<br/>samples = 1<br/>value = [1, 0, 0, 0, 0, 0, 0, 0, 0, 0, 0]>, fillcolor="#e58139"] ;
294 -> 296 ;
297 [label=<X<SUB>0</SUB> &le; 0.817<br/>gini = 0.133<br/>samples = 14<br/>value = [13, 0, 0, 0, 0, 0, 0, 0, 1, 0, 0]>, fillcolor="#e78b48"] ;
293 -> 297 ;
298 [label=<gini = 0.0<br/>samples = 10<br/>value = [10, 0, 0, 0, 0, 0, 0, 0, 0, 0, 0]>, fillcolor="#e58139"] ;
297 -> 298 ;
299 [label=<X<SUB>0</SUB> &le; 0.822<br/>gini = 0.375<br/>samples = 4<br/>value = [3, 0, 0, 0, 0, 0, 0, 0, 1, 0, 0]>, fillcolor="#eeab7b"] ;
297 -> 299 ;
300 [label=<gini = 0.0<br/>samples = 1<br/>value = [0, 0, 0, 0, 0, 0, 0, 0, 1, 0, 0]>, fillcolor="#bd39e5"] ;
299 -> 300 ;
301 [label=<gini = 0.0<br/>samples = 3<br/>value = [3, 0, 0, 0, 0, 0, 0, 0, 0, 0, 0]>, fillcolor="#e58139"] ;
299 -> 301 ;
302 [label=<X<SUB>0</SUB> &le; 0.74<br/>gini = 0.408<br/>samples = 7<br/>value = [2, 0, 0, 0, 0, 0, 0, 0, 0, 5, 0]>, fillcolor="#ef88ce"] ;
274 -> 302 ;
303 [label=<gini = 0.0<br/>samples = 4<br/>value = [0, 0, 0, 0, 0, 0, 0, 0, 0, 4, 0]>, fillcolor="#e539ae"] ;
302 -> 303 ;
304 [label=<X<SUB>0</SUB> &le; 0.778<br/>gini = 0.444<br/>samples = 3<br/>value = [2, 0, 0, 0, 0, 0, 0, 0, 0, 1, 0]>, fillcolor="#f2c09c"] ;
302 -> 304 ;
305 [label=<gini = 0.0<br/>samples = 2<br/>value = [2, 0, 0, 0, 0, 0, 0, 0, 0, 0, 0]>, fillcolor="#e58139"] ;
304 -> 305 ;
306 [label=<gini = 0.0<br/>samples = 1<br/>value = [0, 0, 0, 0, 0, 0, 0, 0, 0, 1, 0]>, fillcolor="#e539ae"] ;
304 -> 306 ;
307 [label=<X<SUB>0</SUB> &le; 0.847<br/>gini = 0.72<br/>samples = 10<br/>value = [1, 0, 0, 0, 0, 0, 0, 0, 3, 3, 3]>, fillcolor="#ffffff"] ;
273 -> 307 ;
308 [label=<gini = 0.0<br/>samples = 3<br/>value = [0, 0, 0, 0, 0, 0, 0, 0, 3, 0, 0]>, fillcolor="#bd39e5"] ;
307 -> 308 ;
309 [label=<X<SUB>1</SUB> &le; 0.55<br/>gini = 0.612<br/>samples = 7<br/>value = [1, 0, 0, 0, 0, 0, 0, 0, 0, 3, 3]>, fillcolor="#ffffff"] ;
307 -> 309 ;
310 [label=<X<SUB>1</SUB> &le; 0.443<br/>gini = 0.444<br/>samples = 3<br/>value = [1, 0, 0, 0, 0, 0, 0, 0, 0, 0, 2]>, fillcolor="#f29ca8"] ;
309 -> 310 ;
311 [label=<gini = 0.0<br/>samples = 1<br/>value = [1, 0, 0, 0, 0, 0, 0, 0, 0, 0, 0]>, fillcolor="#e58139"] ;
310 -> 311 ;
312 [label=<gini = 0.0<br/>samples = 2<br/>value = [0, 0, 0, 0, 0, 0, 0, 0, 0, 0, 2]>, fillcolor="#e53950"] ;
310 -> 312 ;
313 [label=<X<SUB>1</SUB> &le; 0.638<br/>gini = 0.375<br/>samples = 4<br/>value = [0, 0, 0, 0, 0, 0, 0, 0, 0, 3, 1]>, fillcolor="#ee7bc9"] ;
309 -> 313 ;
314 [label=<gini = 0.0<br/>samples = 3<br/>value = [0, 0, 0, 0, 0, 0, 0, 0, 0, 3, 0]>, fillcolor="#e539ae"] ;
313 -> 314 ;
315 [label=<gini = 0.0<br/>samples = 1<br/>value = [0, 0, 0, 0, 0, 0, 0, 0, 0, 0, 1]>, fillcolor="#e53950"] ;
313 -> 315 ;
316 [label=<X<SUB>0</SUB> &le; 0.954<br/>gini = 0.665<br/>samples = 71<br/>value = [35, 0, 0, 0, 0, 0, 4, 0, 19, 8, 5]>, fillcolor="#f7d8c2"] ;
244 -> 316 ;
317 [label=<X<SUB>1</SUB> &le; 1.021<br/>gini = 0.556<br/>samples = 54<br/>value = [32, 0, 0, 0, 0, 0, 2, 0, 16, 3, 1]>, fillcolor="#f4caac"] ;
316 -> 317 ;
318 [label=<X<SUB>1</SUB> &le; 0.824<br/>gini = 0.544<br/>samples = 52<br/>value = [32, 0, 0, 0, 0, 0, 2, 0, 14, 3, 1]>, fillcolor="#f3c3a1"] ;
317 -> 318 ;
319 [label=<X<SUB>1</SUB> &le; 0.506<br/>gini = 0.55<br/>samples = 39<br/>value = [22, 0, 0, 0, 0, 0, 2, 0, 14, 0, 1]>, fillcolor="#f7d7c0"] ;
318 -> 319 ;
320 [label=<X<SUB>0</SUB> &le; 0.862<br/>gini = 0.476<br/>samples = 23<br/>value = [16, 0, 0, 0, 0, 0, 2, 0, 4, 0, 1]>, fillcolor="#efaf82"] ;
319 -> 320 ;
321 [label=<gini = 0.0<br/>samples = 1<br/>value = [0, 0, 0, 0, 0, 0, 0, 0, 1, 0, 0]>, fillcolor="#bd39e5"] ;
320 -> 321 ;
322 [label=<X<SUB>1</SUB> &le; 0.349<br/>gini = 0.442<br/>samples = 22<br/>value = [16, 0, 0, 0, 0, 0, 2, 0, 3, 0, 1]>, fillcolor="#eda978"] ;
320 -> 322 ;
323 [label=<X<SUB>0</SUB> &le; 0.928<br/>gini = 0.255<br/>samples = 14<br/>value = [12, 0, 0, 0, 0, 0, 1, 0, 1, 0, 0]>, fillcolor="#e99457"] ;
322 -> 323 ;
324 [label=<X<SUB>1</SUB> &le; 0.137<br/>gini = 0.18<br/>samples = 10<br/>value = [9, 0, 0, 0, 0, 0, 0, 0, 1, 0, 0]>, fillcolor="#e88f4f"] ;
323 -> 324 ;
325 [label=<X<SUB>1</SUB> &le; 0.073<br/>gini = 0.444<br/>samples = 3<br/>value = [2, 0, 0, 0, 0, 0, 0, 0, 1, 0, 0]>, fillcolor="#f2c09c"] ;
324 -> 325 ;
326 [label=<gini = 0.0<br/>samples = 2<br/>value = [2, 0, 0, 0, 0, 0, 0, 0, 0, 0, 0]>, fillcolor="#e58139"] ;
325 -> 326 ;
327 [label=<gini = 0.0<br/>samples = 1<br/>value = [0, 0, 0, 0, 0, 0, 0, 0, 1, 0, 0]>, fillcolor="#bd39e5"] ;
325 -> 327 ;
328 [label=<gini = 0.0<br/>samples = 7<br/>value = [7, 0, 0, 0, 0, 0, 0, 0, 0, 0, 0]>, fillcolor="#e58139"] ;
324 -> 328 ;
329 [label=<X<SUB>0</SUB> &le; 0.939<br/>gini = 0.375<br/>samples = 4<br/>value = [3, 0, 0, 0, 0, 0, 1, 0, 0, 0, 0]>, fillcolor="#eeab7b"] ;
323 -> 329 ;
330 [label=<gini = 0.0<br/>samples = 1<br/>value = [0, 0, 0, 0, 0, 0, 1, 0, 0, 0, 0]>, fillcolor="#396fe5"] ;
329 -> 330 ;
331 [label=<gini = 0.0<br/>samples = 3<br/>value = [3, 0, 0, 0, 0, 0, 0, 0, 0, 0, 0]>, fillcolor="#e58139"] ;
329 -> 331 ;
332 [label=<X<SUB>1</SUB> &le; 0.395<br/>gini = 0.656<br/>samples = 8<br/>value = [4, 0, 0, 0, 0, 0, 1, 0, 2, 0, 1]>, fillcolor="#f6d5bd"] ;
322 -> 332 ;
333 [label=<X<SUB>1</SUB> &le; 0.376<br/>gini = 0.625<br/>samples = 4<br/>value = [0, 0, 0, 0, 0, 0, 1, 0, 2, 0, 1]>, fillcolor="#e9bdf6"] ;
332 -> 333 ;
334 [label=<X<SUB>1</SUB> &le; 0.368<br/>gini = 0.5<br/>samples = 2<br/>value = [0, 0, 0, 0, 0, 0, 1, 0, 0, 0, 1]>, fillcolor="#ffffff"] ;
333 -> 334 ;
335 [label=<gini = 0.0<br/>samples = 1<br/>value = [0, 0, 0, 0, 0, 0, 0, 0, 0, 0, 1]>, fillcolor="#e53950"] ;
334 -> 335 ;
336 [label=<gini = 0.0<br/>samples = 1<br/>value = [0, 0, 0, 0, 0, 0, 1, 0, 0, 0, 0]>, fillcolor="#396fe5"] ;
334 -> 336 ;
337 [label=<gini = 0.0<br/>samples = 2<br/>value = [0, 0, 0, 0, 0, 0, 0, 0, 2, 0, 0]>, fillcolor="#bd39e5"] ;
333 -> 337 ;
338 [label=<gini = 0.0<br/>samples = 4<br/>value = [4, 0, 0, 0, 0, 0, 0, 0, 0, 0, 0]>, fillcolor="#e58139"] ;
332 -> 338 ;
339 [label=<X<SUB>0</SUB> &le; 0.912<br/>gini = 0.469<br/>samples = 16<br/>value = [6, 0, 0, 0, 0, 0, 0, 0, 10, 0, 0]>, fillcolor="#e5b0f5"] ;
319 -> 339 ;
340 [label=<X<SUB>1</SUB> &le; 0.795<br/>gini = 0.375<br/>samples = 8<br/>value = [6, 0, 0, 0, 0, 0, 0, 0, 2, 0, 0]>, fillcolor="#eeab7b"] ;
339 -> 340 ;
341 [label=<X<SUB>0</SUB> &le; 0.892<br/>gini = 0.245<br/>samples = 7<br/>value = [6, 0, 0, 0, 0, 0, 0, 0, 1, 0, 0]>, fillcolor="#e9965a"] ;
340 -> 341 ;
342 [label=<gini = 0.0<br/>samples = 4<br/>value = [4, 0, 0, 0, 0, 0, 0, 0, 0, 0, 0]>, fillcolor="#e58139"] ;
341 -> 342 ;
343 [label=<X<SUB>0</SUB> &le; 0.9<br/>gini = 0.444<br/>samples = 3<br/>value = [2, 0, 0, 0, 0, 0, 0, 0, 1, 0, 0]>, fillcolor="#f2c09c"] ;
341 -> 343 ;
344 [label=<gini = 0.0<br/>samples = 1<br/>value = [0, 0, 0, 0, 0, 0, 0, 0, 1, 0, 0]>, fillcolor="#bd39e5"] ;
343 -> 344 ;
345 [label=<gini = 0.0<br/>samples = 2<br/>value = [2, 0, 0, 0, 0, 0, 0, 0, 0, 0, 0]>, fillcolor="#e58139"] ;
343 -> 345 ;
346 [label=<gini = 0.0<br/>samples = 1<br/>value = [0, 0, 0, 0, 0, 0, 0, 0, 1, 0, 0]>, fillcolor="#bd39e5"] ;
340 -> 346 ;
347 [label=<gini = 0.0<br/>samples = 8<br/>value = [0, 0, 0, 0, 0, 0, 0, 0, 8, 0, 0]>, fillcolor="#bd39e5"] ;
339 -> 347 ;
348 [label=<X<SUB>1</SUB> &le; 0.89<br/>gini = 0.355<br/>samples = 13<br/>value = [10, 0, 0, 0, 0, 0, 0, 0, 0, 3, 0]>, fillcolor="#eda774"] ;
318 -> 348 ;
349 [label=<gini = 0.0<br/>samples = 7<br/>value = [7, 0, 0, 0, 0, 0, 0, 0, 0, 0, 0]>, fillcolor="#e58139"] ;
348 -> 349 ;
350 [label=<X<SUB>1</SUB> &le; 0.926<br/>gini = 0.5<br/>samples = 6<br/>value = [3, 0, 0, 0, 0, 0, 0, 0, 0, 3, 0]>, fillcolor="#ffffff"] ;
348 -> 350 ;
351 [label=<gini = 0.0<br/>samples = 3<br/>value = [0, 0, 0, 0, 0, 0, 0, 0, 0, 3, 0]>, fillcolor="#e539ae"] ;
350 -> 351 ;
352 [label=<gini = 0.0<br/>samples = 3<br/>value = [3, 0, 0, 0, 0, 0, 0, 0, 0, 0, 0]>, fillcolor="#e58139"] ;
350 -> 352 ;
353 [label=<gini = 0.0<br/>samples = 2<br/>value = [0, 0, 0, 0, 0, 0, 0, 0, 2, 0, 0]>, fillcolor="#bd39e5"] ;
317 -> 353 ;
354 [label=<X<SUB>1</SUB> &le; 0.542<br/>gini = 0.782<br/>samples = 17<br/>value = [3, 0, 0, 0, 0, 0, 2, 0, 3, 5, 4]>, fillcolor="#fdf0f9"] ;
316 -> 354 ;
355 [label=<X<SUB>1</SUB> &le; 0.182<br/>gini = 0.716<br/>samples = 9<br/>value = [1, 0, 0, 0, 0, 0, 2, 0, 1, 1, 4]>, fillcolor="#f8c6cd"] ;
354 -> 355 ;
356 [label=<X<SUB>0</SUB> &le; 0.961<br/>gini = 0.625<br/>samples = 4<br/>value = [0, 0, 0, 0, 0, 0, 2, 0, 1, 1, 0]>, fillcolor="#bdcff6"] ;
355 -> 356 ;
357 [label=<X<SUB>1</SUB> &le; 0.129<br/>gini = 0.5<br/>samples = 2<br/>value = [0, 0, 0, 0, 0, 0, 0, 0, 1, 1, 0]>, fillcolor="#ffffff"] ;
356 -> 357 ;
358 [label=<gini = 0.0<br/>samples = 1<br/>value = [0, 0, 0, 0, 0, 0, 0, 0, 1, 0, 0]>, fillcolor="#bd39e5"] ;
357 -> 358 ;
359 [label=<gini = 0.0<br/>samples = 1<br/>value = [0, 0, 0, 0, 0, 0, 0, 0, 0, 1, 0]>, fillcolor="#e539ae"] ;
357 -> 359 ;
360 [label=<gini = 0.0<br/>samples = 2<br/>value = [0, 0, 0, 0, 0, 0, 2, 0, 0, 0, 0]>, fillcolor="#396fe5"] ;
356 -> 360 ;
361 [label=<X<SUB>0</SUB> &le; 0.97<br/>gini = 0.32<br/>samples = 5<br/>value = [1, 0, 0, 0, 0, 0, 0, 0, 0, 0, 4]>, fillcolor="#ec6a7c"] ;
355 -> 361 ;
362 [label=<gini = 0.0<br/>samples = 3<br/>value = [0, 0, 0, 0, 0, 0, 0, 0, 0, 0, 3]>, fillcolor="#e53950"] ;
361 -> 362 ;
363 [label=<X<SUB>1</SUB> &le; 0.271<br/>gini = 0.5<br/>samples = 2<br/>value = [1, 0, 0, 0, 0, 0, 0, 0, 0, 0, 1]>, fillcolor="#ffffff"] ;
361 -> 363 ;
364 [label=<gini = 0.0<br/>samples = 1<br/>value = [0, 0, 0, 0, 0, 0, 0, 0, 0, 0, 1]>, fillcolor="#e53950"] ;
363 -> 364 ;
365 [label=<gini = 0.0<br/>samples = 1<br/>value = [1, 0, 0, 0, 0, 0, 0, 0, 0, 0, 0]>, fillcolor="#e58139"] ;
363 -> 365 ;
366 [label=<X<SUB>1</SUB> &le; 0.737<br/>gini = 0.625<br/>samples = 8<br/>value = [2, 0, 0, 0, 0, 0, 0, 0, 2, 4, 0]>, fillcolor="#f6bde4"] ;
354 -> 366 ;
367 [label=<gini = 0.0<br/>samples = 3<br/>value = [0, 0, 0, 0, 0, 0, 0, 0, 0, 3, 0]>, fillcolor="#e539ae"] ;
366 -> 367 ;
368 [label=<X<SUB>1</SUB> &le; 0.87<br/>gini = 0.64<br/>samples = 5<br/>value = [2, 0, 0, 0, 0, 0, 0, 0, 2, 1, 0]>, fillcolor="#ffffff"] ;
366 -> 368 ;
369 [label=<X<SUB>1</SUB> &le; 0.791<br/>gini = 0.444<br/>samples = 3<br/>value = [1, 0, 0, 0, 0, 0, 0, 0, 2, 0, 0]>, fillcolor="#de9cf2"] ;
368 -> 369 ;
370 [label=<gini = 0.0<br/>samples = 1<br/>value = [1, 0, 0, 0, 0, 0, 0, 0, 0, 0, 0]>, fillcolor="#e58139"] ;
369 -> 370 ;
371 [label=<gini = 0.0<br/>samples = 2<br/>value = [0, 0, 0, 0, 0, 0, 0, 0, 2, 0, 0]>, fillcolor="#bd39e5"] ;
369 -> 371 ;
372 [label=<X<SUB>0</SUB> &le; 0.97<br/>gini = 0.5<br/>samples = 2<br/>value = [1, 0, 0, 0, 0, 0, 0, 0, 0, 1, 0]>, fillcolor="#ffffff"] ;
368 -> 372 ;
373 [label=<gini = 0.0<br/>samples = 1<br/>value = [0, 0, 0, 0, 0, 0, 0, 0, 0, 1, 0]>, fillcolor="#e539ae"] ;
372 -> 373 ;
374 [label=<gini = 0.0<br/>samples = 1<br/>value = [1, 0, 0, 0, 0, 0, 0, 0, 0, 0, 0]>, fillcolor="#e58139"] ;
372 -> 374 ;
375 [label=<X<SUB>1</SUB> &le; 2.038<br/>gini = 0.866<br/>samples = 694<br/>value = [114, 0, 0, 18, 47, 59, 123, 123, 88, 73, 49]>, fillcolor="#ffffff"] ;
1 -> 375 ;
376 [label=<X<SUB>0</SUB> &le; 0.811<br/>gini = 0.834<br/>samples = 424<br/>value = [65, 0, 0, 0, 2, 28, 80, 88, 88, 24, 49]>, fillcolor="#ffffff"] ;
375 -> 376 ;
377 [label=<X<SUB>1</SUB> &le; 1.264<br/>gini = 0.831<br/>samples = 349<br/>value = [61, 0, 0, 0, 2, 28, 72, 47, 85, 22, 32]>, fillcolor="#fcf6fe"] ;
376 -> 377 ;
378 [label=<X<SUB>0</SUB> &le; 0.087<br/>gini = 0.815<br/>samples = 81<br/>value = [20, 0, 0, 0, 0, 10, 3, 19, 8, 5, 16]>, fillcolor="#fffdfc"] ;
377 -> 378 ;
379 [label=<X<SUB>1</SUB> &le; 1.224<br/>gini = 0.355<br/>samples = 13<br/>value = [3, 0, 0, 0, 0, 0, 0, 10, 0, 0, 0]>, fillcolor="#9074ed"] ;
378 -> 379 ;
380 [label=<gini = 0.0<br/>samples = 10<br/>value = [0, 0, 0, 0, 0, 0, 0, 10, 0, 0, 0]>, fillcolor="#6139e5"] ;
379 -> 380 ;
381 [label=<gini = 0.0<br/>samples = 3<br/>value = [3, 0, 0, 0, 0, 0, 0, 0, 0, 0, 0]>, fillcolor="#e58139"] ;
379 -> 381 ;
382 [label=<X<SUB>1</SUB> &le; 1.113<br/>gini = 0.822<br/>samples = 68<br/>value = [17, 0, 0, 0, 0, 10, 3, 9, 8, 5, 16]>, fillcolor="#fefdfb"] ;
378 -> 382 ;
383 [label=<X<SUB>0</SUB> &le; 0.645<br/>gini = 0.649<br/>samples = 15<br/>value = [1, 0, 0, 0, 0, 0, 3, 1, 8, 0, 2]>, fillcolor="#e4acf4"] ;
382 -> 383 ;
384 [label=<X<SUB>0</SUB> &le; 0.381<br/>gini = 0.514<br/>samples = 12<br/>value = [1, 0, 0, 0, 0, 0, 2, 1, 8, 0, 0]>, fillcolor="#d788ef"] ;
383 -> 384 ;
385 [label=<X<SUB>0</SUB> &le; 0.351<br/>gini = 0.72<br/>samples = 5<br/>value = [1, 0, 0, 0, 0, 0, 2, 1, 1, 0, 0]>, fillcolor="#cedbf8"] ;
384 -> 385 ;
386 [label=<X<SUB>0</SUB> &le; 0.226<br/>gini = 0.667<br/>samples = 3<br/>value = [1, 0, 0, 0, 0, 0, 0, 1, 1, 0, 0]>, fillcolor="#ffffff"] ;
385 -> 386 ;
387 [label=<gini = 0.0<br/>samples = 1<br/>value = [1, 0, 0, 0, 0, 0, 0, 0, 0, 0, 0]>, fillcolor="#e58139"] ;
386 -> 387 ;
388 [label=<X<SUB>1</SUB> &le; 1.062<br/>gini = 0.5<br/>samples = 2<br/>value = [0, 0, 0, 0, 0, 0, 0, 1, 1, 0, 0]>, fillcolor="#ffffff"] ;
386 -> 388 ;
389 [label=<gini = 0.0<br/>samples = 1<br/>value = [0, 0, 0, 0, 0, 0, 0, 0, 1, 0, 0]>, fillcolor="#bd39e5"] ;
388 -> 389 ;
390 [label=<gini = 0.0<br/>samples = 1<br/>value = [0, 0, 0, 0, 0, 0, 0, 1, 0, 0, 0]>, fillcolor="#6139e5"] ;
388 -> 390 ;
391 [label=<gini = 0.0<br/>samples = 2<br/>value = [0, 0, 0, 0, 0, 0, 2, 0, 0, 0, 0]>, fillcolor="#396fe5"] ;
385 -> 391 ;
392 [label=<gini = 0.0<br/>samples = 7<br/>value = [0, 0, 0, 0, 0, 0, 0, 0, 7, 0, 0]>, fillcolor="#bd39e5"] ;
384 -> 392 ;
393 [label=<X<SUB>1</SUB> &le; 1.078<br/>gini = 0.444<br/>samples = 3<br/>value = [0, 0, 0, 0, 0, 0, 1, 0, 0, 0, 2]>, fillcolor="#f29ca8"] ;
383 -> 393 ;
394 [label=<gini = 0.0<br/>samples = 1<br/>value = [0, 0, 0, 0, 0, 0, 1, 0, 0, 0, 0]>, fillcolor="#396fe5"] ;
393 -> 394 ;
395 [label=<gini = 0.0<br/>samples = 2<br/>value = [0, 0, 0, 0, 0, 0, 0, 0, 0, 0, 2]>, fillcolor="#e53950"] ;
393 -> 395 ;
396 [label=<X<SUB>1</SUB> &le; 1.152<br/>gini = 0.772<br/>samples = 53<br/>value = [16, 0, 0, 0, 0, 10, 0, 8, 0, 5, 14]>, fillcolor="#fef9f5"] ;
382 -> 396 ;
397 [label=<X<SUB>0</SUB> &le; 0.447<br/>gini = 0.56<br/>samples = 15<br/>value = [0, 0, 0, 0, 0, 7, 0, 0, 0, 1, 7]>, fillcolor="#ffffff"] ;
396 -> 397 ;
398 [label=<X<SUB>1</SUB> &le; 1.138<br/>gini = 0.245<br/>samples = 7<br/>value = [0, 0, 0, 0, 0, 6, 0, 0, 0, 0, 1]>, fillcolor="#5ad6e9"] ;
397 -> 398 ;
399 [label=<gini = 0.0<br/>samples = 6<br/>value = [0, 0, 0, 0, 0, 6, 0, 0, 0, 0, 0]>, fillcolor="#39cee5"] ;
398 -> 399 ;
400 [label=<gini = 0.0<br/>samples = 1<br/>value = [0, 0, 0, 0, 0, 0, 0, 0, 0, 0, 1]>, fillcolor="#e53950"] ;
398 -> 400 ;
401 [label=<X<SUB>0</SUB> &le; 0.486<br/>gini = 0.406<br/>samples = 8<br/>value = [0, 0, 0, 0, 0, 1, 0, 0, 0, 1, 6]>, fillcolor="#ec7282"] ;
397 -> 401 ;
402 [label=<gini = 0.0<br/>samples = 1<br/>value = [0, 0, 0, 0, 0, 0, 0, 0, 0, 1, 0]>, fillcolor="#e539ae"] ;
401 -> 402 ;
403 [label=<X<SUB>0</SUB> &le; 0.764<br/>gini = 0.245<br/>samples = 7<br/>value = [0, 0, 0, 0, 0, 1, 0, 0, 0, 0, 6]>, fillcolor="#e95a6d"] ;
401 -> 403 ;
404 [label=<gini = 0.0<br/>samples = 5<br/>value = [0, 0, 0, 0, 0, 0, 0, 0, 0, 0, 5]>, fillcolor="#e53950"] ;
403 -> 404 ;
405 [label=<X<SUB>0</SUB> &le; 0.778<br/>gini = 0.5<br/>samples = 2<br/>value = [0, 0, 0, 0, 0, 1, 0, 0, 0, 0, 1]>, fillcolor="#ffffff"] ;
403 -> 405 ;
406 [label=<gini = 0.0<br/>samples = 1<br/>value = [0, 0, 0, 0, 0, 1, 0, 0, 0, 0, 0]>, fillcolor="#39cee5"] ;
405 -> 406 ;
407 [label=<gini = 0.0<br/>samples = 1<br/>value = [0, 0, 0, 0, 0, 0, 0, 0, 0, 0, 1]>, fillcolor="#e53950"] ;
405 -> 407 ;
408 [label=<X<SUB>1</SUB> &le; 1.193<br/>gini = 0.727<br/>samples = 38<br/>value = [16, 0, 0, 0, 0, 3, 0, 8, 0, 4, 7]>, fillcolor="#f8ddca"] ;
396 -> 408 ;
409 [label=<X<SUB>0</SUB> &le; 0.13<br/>gini = 0.568<br/>samples = 18<br/>value = [11, 0, 0, 0, 0, 0, 0, 1, 0, 3, 3]>, fillcolor="#f1bc95"] ;
408 -> 409 ;
410 [label=<X<SUB>1</SUB> &le; 1.169<br/>gini = 0.375<br/>samples = 4<br/>value = [0, 0, 0, 0, 0, 0, 0, 1, 0, 3, 0]>, fillcolor="#ee7bc9"] ;
409 -> 410 ;
411 [label=<gini = 0.0<br/>samples = 3<br/>value = [0, 0, 0, 0, 0, 0, 0, 0, 0, 3, 0]>, fillcolor="#e539ae"] ;
410 -> 411 ;
412 [label=<gini = 0.0<br/>samples = 1<br/>value = [0, 0, 0, 0, 0, 0, 0, 1, 0, 0, 0]>, fillcolor="#6139e5"] ;
410 -> 412 ;
413 [label=<X<SUB>1</SUB> &le; 1.165<br/>gini = 0.337<br/>samples = 14<br/>value = [11, 0, 0, 0, 0, 0, 0, 0, 0, 0, 3]>, fillcolor="#eca36f"] ;
409 -> 413 ;
414 [label=<X<SUB>1</SUB> &le; 1.157<br/>gini = 0.48<br/>samples = 5<br/>value = [2, 0, 0, 0, 0, 0, 0, 0, 0, 0, 3]>, fillcolor="#f6bdc5"] ;
413 -> 414 ;
415 [label=<gini = 0.0<br/>samples = 2<br/>value = [2, 0, 0, 0, 0, 0, 0, 0, 0, 0, 0]>, fillcolor="#e58139"] ;
414 -> 415 ;
416 [label=<gini = 0.0<br/>samples = 3<br/>value = [0, 0, 0, 0, 0, 0, 0, 0, 0, 0, 3]>, fillcolor="#e53950"] ;
414 -> 416 ;
417 [label=<gini = 0.0<br/>samples = 9<br/>value = [9, 0, 0, 0, 0, 0, 0, 0, 0, 0, 0]>, fillcolor="#e58139"] ;
413 -> 417 ;
418 [label=<X<SUB>0</SUB> &le; 0.181<br/>gini = 0.75<br/>samples = 20<br/>value = [5, 0, 0, 0, 0, 3, 0, 7, 0, 1, 4]>, fillcolor="#eae5fc"] ;
408 -> 418 ;
419 [label=<X<SUB>1</SUB> &le; 1.223<br/>gini = 0.32<br/>samples = 5<br/>value = [4, 0, 0, 0, 0, 0, 0, 1, 0, 0, 0]>, fillcolor="#eca06a"] ;
418 -> 419 ;
420 [label=<gini = 0.0<br/>samples = 1<br/>value = [0, 0, 0, 0, 0, 0, 0, 1, 0, 0, 0]>, fillcolor="#6139e5"] ;
419 -> 420 ;
421 [label=<gini = 0.0<br/>samples = 4<br/>value = [4, 0, 0, 0, 0, 0, 0, 0, 0, 0, 0]>, fillcolor="#e58139"] ;
419 -> 421 ;
422 [label=<X<SUB>1</SUB> &le; 1.22<br/>gini = 0.72<br/>samples = 15<br/>value = [1, 0, 0, 0, 0, 3, 0, 6, 0, 1, 4]>, fillcolor="#e2dbfa"] ;
418 -> 422 ;
423 [label=<X<SUB>0</SUB> &le; 0.488<br/>gini = 0.48<br/>samples = 5<br/>value = [0, 0, 0, 0, 0, 3, 0, 2, 0, 0, 0]>, fillcolor="#bdeff6"] ;
422 -> 423 ;
424 [label=<gini = 0.0<br/>samples = 2<br/>value = [0, 0, 0, 0, 0, 2, 0, 0, 0, 0, 0]>, fillcolor="#39cee5"] ;
423 -> 424 ;
425 [label=<X<SUB>0</SUB> &le; 0.699<br/>gini = 0.444<br/>samples = 3<br/>value = [0, 0, 0, 0, 0, 1, 0, 2, 0, 0, 0]>, fillcolor="#b09cf2"] ;
423 -> 425 ;
426 [label=<gini = 0.0<br/>samples = 2<br/>value = [0, 0, 0, 0, 0, 0, 0, 2, 0, 0, 0]>, fillcolor="#6139e5"] ;
425 -> 426 ;
427 [label=<gini = 0.0<br/>samples = 1<br/>value = [0, 0, 0, 0, 0, 1, 0, 0, 0, 0, 0]>, fillcolor="#39cee5"] ;
425 -> 427 ;
428 [label=<X<SUB>1</SUB> &le; 1.252<br/>gini = 0.66<br/>samples = 10<br/>value = [1, 0, 0, 0, 0, 0, 0, 4, 0, 1, 4]>, fillcolor="#ffffff"] ;
422 -> 428 ;
429 [label=<X<SUB>0</SUB> &le; 0.237<br/>gini = 0.656<br/>samples = 8<br/>value = [1, 0, 0, 0, 0, 0, 0, 4, 0, 1, 2]>, fillcolor="#cabdf6"] ;
428 -> 429 ;
430 [label=<gini = 0.0<br/>samples = 1<br/>value = [0, 0, 0, 0, 0, 0, 0, 0, 0, 1, 0]>, fillcolor="#e539ae"] ;
429 -> 430 ;
431 [label=<X<SUB>0</SUB> &le; 0.532<br/>gini = 0.571<br/>samples = 7<br/>value = [1, 0, 0, 0, 0, 0, 0, 4, 0, 0, 2]>, fillcolor="#c0b0f5"] ;
429 -> 431 ;
432 [label=<X<SUB>1</SUB> &le; 1.232<br/>gini = 0.444<br/>samples = 6<br/>value = [0, 0, 0, 0, 0, 0, 0, 4, 0, 0, 2]>, fillcolor="#b09cf2"] ;
431 -> 432 ;
433 [label=<X<SUB>0</SUB> &le; 0.367<br/>gini = 0.444<br/>samples = 3<br/>value = [0, 0, 0, 0, 0, 0, 0, 1, 0, 0, 2]>, fillcolor="#f29ca8"] ;
432 -> 433 ;
434 [label=<gini = 0.0<br/>samples = 2<br/>value = [0, 0, 0, 0, 0, 0, 0, 0, 0, 0, 2]>, fillcolor="#e53950"] ;
433 -> 434 ;
435 [label=<gini = 0.0<br/>samples = 1<br/>value = [0, 0, 0, 0, 0, 0, 0, 1, 0, 0, 0]>, fillcolor="#6139e5"] ;
433 -> 435 ;
436 [label=<gini = 0.0<br/>samples = 3<br/>value = [0, 0, 0, 0, 0, 0, 0, 3, 0, 0, 0]>, fillcolor="#6139e5"] ;
432 -> 436 ;
437 [label=<gini = 0.0<br/>samples = 1<br/>value = [1, 0, 0, 0, 0, 0, 0, 0, 0, 0, 0]>, fillcolor="#e58139"] ;
431 -> 437 ;
438 [label=<gini = 0.0<br/>samples = 2<br/>value = [0, 0, 0, 0, 0, 0, 0, 0, 0, 0, 2]>, fillcolor="#e53950"] ;
428 -> 438 ;
439 [label=<X<SUB>1</SUB> &le; 1.315<br/>gini = 0.805<br/>samples = 268<br/>value = [41, 0, 0, 0, 2, 18, 69, 28, 77, 17, 16]>, fillcolor="#fcf7fe"] ;
377 -> 439 ;
440 [label=<gini = 0.0<br/>samples = 12<br/>value = [0, 0, 0, 0, 0, 0, 12, 0, 0, 0, 0]>, fillcolor="#396fe5"] ;
439 -> 440 ;
441 [label=<X<SUB>0</SUB> &le; 0.772<br/>gini = 0.809<br/>samples = 256<br/>value = [41, 0, 0, 0, 2, 18, 57, 28, 77, 17, 16]>, fillcolor="#f8ebfc"] ;
439 -> 441 ;
442 [label=<X<SUB>0</SUB> &le; 0.597<br/>gini = 0.81<br/>samples = 243<br/>value = [40, 0, 0, 0, 2, 18, 45, 28, 77, 17, 16]>, fillcolor="#f4dffb"] ;
441 -> 442 ;
443 [label=<X<SUB>0</SUB> &le; 0.313<br/>gini = 0.767<br/>samples = 193<br/>value = [25, 0, 0, 0, 2, 14, 44, 18, 74, 10, 6]>, fillcolor="#f2d7fa"] ;
442 -> 443 ;
444 [label=<X<SUB>1</SUB> &le; 1.644<br/>gini = 0.808<br/>samples = 112<br/>value = [25, 0, 0, 0, 1, 6, 14, 16, 34, 10, 6]>, fillcolor="#f8ebfc"] ;
443 -> 444 ;
445 [label=<X<SUB>1</SUB> &le; 1.386<br/>gini = 0.687<br/>samples = 50<br/>value = [25, 0, 0, 0, 0, 1, 5, 5, 0, 9, 5]>, fillcolor="#f5ceb2"] ;
444 -> 445 ;
446 [label=<X<SUB>0</SUB> &le; 0.209<br/>gini = 0.469<br/>samples = 8<br/>value = [0, 0, 0, 0, 0, 0, 5, 0, 0, 0, 3]>, fillcolor="#b0c5f5"] ;
445 -> 446 ;
447 [label=<gini = 0.0<br/>samples = 5<br/>value = [0, 0, 0, 0, 0, 0, 5, 0, 0, 0, 0]>, fillcolor="#396fe5"] ;
446 -> 447 ;
448 [label=<gini = 0.0<br/>samples = 3<br/>value = [0, 0, 0, 0, 0, 0, 0, 0, 0, 0, 3]>, fillcolor="#e53950"] ;
446 -> 448 ;
449 [label=<X<SUB>1</SUB> &le; 1.475<br/>gini = 0.583<br/>samples = 42<br/>value = [25, 0, 0, 0, 0, 1, 0, 5, 0, 9, 2]>, fillcolor="#f2c29f"] ;
445 -> 449 ;
450 [label=<X<SUB>0</SUB> &le; 0.032<br/>gini = 0.204<br/>samples = 18<br/>value = [16, 0, 0, 0, 0, 0, 0, 1, 0, 1, 0]>, fillcolor="#e89050"] ;
449 -> 450 ;
451 [label=<gini = 0.0<br/>samples = 1<br/>value = [0, 0, 0, 0, 0, 0, 0, 0, 0, 1, 0]>, fillcolor="#e539ae"] ;
450 -> 451 ;
452 [label=<X<SUB>1</SUB> &le; 1.417<br/>gini = 0.111<br/>samples = 17<br/>value = [16, 0, 0, 0, 0, 0, 0, 1, 0, 0, 0]>, fillcolor="#e78945"] ;
450 -> 452 ;
453 [label=<X<SUB>1</SUB> &le; 1.408<br/>gini = 0.245<br/>samples = 7<br/>value = [6, 0, 0, 0, 0, 0, 0, 1, 0, 0, 0]>, fillcolor="#e9965a"] ;
452 -> 453 ;
454 [label=<gini = 0.0<br/>samples = 6<br/>value = [6, 0, 0, 0, 0, 0, 0, 0, 0, 0, 0]>, fillcolor="#e58139"] ;
453 -> 454 ;
455 [label=<gini = 0.0<br/>samples = 1<br/>value = [0, 0, 0, 0, 0, 0, 0, 1, 0, 0, 0]>, fillcolor="#6139e5"] ;
453 -> 455 ;
456 [label=<gini = 0.0<br/>samples = 10<br/>value = [10, 0, 0, 0, 0, 0, 0, 0, 0, 0, 0]>, fillcolor="#e58139"] ;
452 -> 456 ;
457 [label=<X<SUB>0</SUB> &le; 0.107<br/>gini = 0.712<br/>samples = 24<br/>value = [9, 0, 0, 0, 0, 1, 0, 4, 0, 8, 2]>, fillcolor="#fdf7f3"] ;
449 -> 457 ;
458 [label=<X<SUB>0</SUB> &le; 0.043<br/>gini = 0.397<br/>samples = 11<br/>value = [8, 0, 0, 0, 0, 0, 0, 0, 0, 3, 0]>, fillcolor="#efb083"] ;
457 -> 458 ;
459 [label=<gini = 0.0<br/>samples = 2<br/>value = [0, 0, 0, 0, 0, 0, 0, 0, 0, 2, 0]>, fillcolor="#e539ae"] ;
458 -> 459 ;
460 [label=<X<SUB>1</SUB> &le; 1.62<br/>gini = 0.198<br/>samples = 9<br/>value = [8, 0, 0, 0, 0, 0, 0, 0, 0, 1, 0]>, fillcolor="#e89152"] ;
458 -> 460 ;
461 [label=<gini = 0.0<br/>samples = 7<br/>value = [7, 0, 0, 0, 0, 0, 0, 0, 0, 0, 0]>, fillcolor="#e58139"] ;
460 -> 461 ;
462 [label=<X<SUB>0</SUB> &le; 0.09<br/>gini = 0.5<br/>samples = 2<br/>value = [1, 0, 0, 0, 0, 0, 0, 0, 0, 1, 0]>, fillcolor="#ffffff"] ;
460 -> 462 ;
463 [label=<gini = 0.0<br/>samples = 1<br/>value = [0, 0, 0, 0, 0, 0, 0, 0, 0, 1, 0]>, fillcolor="#e539ae"] ;
462 -> 463 ;
464 [label=<gini = 0.0<br/>samples = 1<br/>value = [1, 0, 0, 0, 0, 0, 0, 0, 0, 0, 0]>, fillcolor="#e58139"] ;
462 -> 464 ;
465 [label=<X<SUB>0</SUB> &le; 0.232<br/>gini = 0.722<br/>samples = 13<br/>value = [1, 0, 0, 0, 0, 1, 0, 4, 0, 5, 2]>, fillcolor="#fce9f6"] ;
457 -> 465 ;
466 [label=<X<SUB>1</SUB> &le; 1.54<br/>gini = 0.617<br/>samples = 9<br/>value = [1, 0, 0, 0, 0, 1, 0, 2, 0, 5, 0]>, fillcolor="#f4aadc"] ;
465 -> 466 ;
467 [label=<X<SUB>1</SUB> &le; 1.485<br/>gini = 0.625<br/>samples = 4<br/>value = [0, 0, 0, 0, 0, 1, 0, 2, 0, 1, 0]>, fillcolor="#cabdf6"] ;
466 -> 467 ;
468 [label=<gini = 0.0<br/>samples = 1<br/>value = [0, 0, 0, 0, 0, 0, 0, 0, 0, 1, 0]>, fillcolor="#e539ae"] ;
467 -> 468 ;
469 [label=<X<SUB>1</SUB> &le; 1.522<br/>gini = 0.444<br/>samples = 3<br/>value = [0, 0, 0, 0, 0, 1, 0, 2, 0, 0, 0]>, fillcolor="#b09cf2"] ;
467 -> 469 ;
470 [label=<gini = 0.0<br/>samples = 2<br/>value = [0, 0, 0, 0, 0, 0, 0, 2, 0, 0, 0]>, fillcolor="#6139e5"] ;
469 -> 470 ;
471 [label=<gini = 0.0<br/>samples = 1<br/>value = [0, 0, 0, 0, 0, 1, 0, 0, 0, 0, 0]>, fillcolor="#39cee5"] ;
469 -> 471 ;
472 [label=<X<SUB>0</SUB> &le; 0.195<br/>gini = 0.32<br/>samples = 5<br/>value = [1, 0, 0, 0, 0, 0, 0, 0, 0, 4, 0]>, fillcolor="#ec6ac2"] ;
466 -> 472 ;
473 [label=<X<SUB>1</SUB> &le; 1.615<br/>gini = 0.5<br/>samples = 2<br/>value = [1, 0, 0, 0, 0, 0, 0, 0, 0, 1, 0]>, fillcolor="#ffffff"] ;
472 -> 473 ;
474 [label=<gini = 0.0<br/>samples = 1<br/>value = [1, 0, 0, 0, 0, 0, 0, 0, 0, 0, 0]>, fillcolor="#e58139"] ;
473 -> 474 ;
475 [label=<gini = 0.0<br/>samples = 1<br/>value = [0, 0, 0, 0, 0, 0, 0, 0, 0, 1, 0]>, fillcolor="#e539ae"] ;
473 -> 475 ;
476 [label=<gini = 0.0<br/>samples = 3<br/>value = [0, 0, 0, 0, 0, 0, 0, 0, 0, 3, 0]>, fillcolor="#e539ae"] ;
472 -> 476 ;
477 [label=<X<SUB>1</SUB> &le; 1.505<br/>gini = 0.5<br/>samples = 4<br/>value = [0, 0, 0, 0, 0, 0, 0, 2, 0, 0, 2]>, fillcolor="#ffffff"] ;
465 -> 477 ;
478 [label=<gini = 0.0<br/>samples = 1<br/>value = [0, 0, 0, 0, 0, 0, 0, 0, 0, 0, 1]>, fillcolor="#e53950"] ;
477 -> 478 ;
479 [label=<X<SUB>0</SUB> &le; 0.25<br/>gini = 0.444<br/>samples = 3<br/>value = [0, 0, 0, 0, 0, 0, 0, 2, 0, 0, 1]>, fillcolor="#b09cf2"] ;
477 -> 479 ;
480 [label=<gini = 0.0<br/>samples = 1<br/>value = [0, 0, 0, 0, 0, 0, 0, 0, 0, 0, 1]>, fillcolor="#e53950"] ;
479 -> 480 ;
481 [label=<gini = 0.0<br/>samples = 2<br/>value = [0, 0, 0, 0, 0, 0, 0, 2, 0, 0, 0]>, fillcolor="#6139e5"] ;
479 -> 481 ;
482 [label=<X<SUB>1</SUB> &le; 1.895<br/>gini = 0.639<br/>samples = 62<br/>value = [0, 0, 0, 0, 1, 5, 9, 11, 34, 1, 1]>, fillcolor="#e1a6f3"] ;
444 -> 482 ;
483 [label=<X<SUB>0</SUB> &le; 0.158<br/>gini = 0.504<br/>samples = 45<br/>value = [0, 0, 0, 0, 1, 3, 4, 4, 31, 1, 1]>, fillcolor="#d47dee"] ;
482 -> 483 ;
484 [label=<X<SUB>1</SUB> &le; 1.801<br/>gini = 0.18<br/>samples = 20<br/>value = [0, 0, 0, 0, 0, 0, 0, 2, 18, 0, 0]>, fillcolor="#c44fe8"] ;
483 -> 484 ;
485 [label=<gini = 0.0<br/>samples = 15<br/>value = [0, 0, 0, 0, 0, 0, 0, 0, 15, 0, 0]>, fillcolor="#bd39e5"] ;
484 -> 485 ;
486 [label=<X<SUB>1</SUB> &le; 1.827<br/>gini = 0.48<br/>samples = 5<br/>value = [0, 0, 0, 0, 0, 0, 0, 2, 3, 0, 0]>, fillcolor="#e9bdf6"] ;
484 -> 486 ;
487 [label=<gini = 0.0<br/>samples = 2<br/>value = [0, 0, 0, 0, 0, 0, 0, 2, 0, 0, 0]>, fillcolor="#6139e5"] ;
486 -> 487 ;
488 [label=<gini = 0.0<br/>samples = 3<br/>value = [0, 0, 0, 0, 0, 0, 0, 0, 3, 0, 0]>, fillcolor="#bd39e5"] ;
486 -> 488 ;
489 [label=<X<SUB>0</SUB> &le; 0.166<br/>gini = 0.678<br/>samples = 25<br/>value = [0, 0, 0, 0, 1, 3, 4, 2, 13, 1, 1]>, fillcolor="#e3aaf4"] ;
483 -> 489 ;
490 [label=<gini = 0.0<br/>samples = 3<br/>value = [0, 0, 0, 0, 0, 3, 0, 0, 0, 0, 0]>, fillcolor="#39cee5"] ;
489 -> 490 ;
491 [label=<X<SUB>0</SUB> &le; 0.303<br/>gini = 0.603<br/>samples = 22<br/>value = [0, 0, 0, 0, 1, 0, 4, 2, 13, 1, 1]>, fillcolor="#de9cf2"] ;
489 -> 491 ;
492 [label=<X<SUB>1</SUB> &le; 1.761<br/>gini = 0.525<br/>samples = 20<br/>value = [0, 0, 0, 0, 1, 0, 4, 2, 13, 0, 0]>, fillcolor="#da90f0"] ;
491 -> 492 ;
493 [label=<X<SUB>0</SUB> &le; 0.178<br/>gini = 0.37<br/>samples = 9<br/>value = [0, 0, 0, 0, 1, 0, 0, 1, 7, 0, 0]>, fillcolor="#ce6aec"] ;
492 -> 493 ;
494 [label=<gini = 0.0<br/>samples = 1<br/>value = [0, 0, 0, 0, 1, 0, 0, 0, 0, 0, 0]>, fillcolor="#39e59d"] ;
493 -> 494 ;
495 [label=<X<SUB>0</SUB> &le; 0.275<br/>gini = 0.219<br/>samples = 8<br/>value = [0, 0, 0, 0, 0, 0, 0, 1, 7, 0, 0]>, fillcolor="#c655e9"] ;
493 -> 495 ;
496 [label=<gini = 0.0<br/>samples = 7<br/>value = [0, 0, 0, 0, 0, 0, 0, 0, 7, 0, 0]>, fillcolor="#bd39e5"] ;
495 -> 496 ;
497 [label=<gini = 0.0<br/>samples = 1<br/>value = [0, 0, 0, 0, 0, 0, 0, 1, 0, 0, 0]>, fillcolor="#6139e5"] ;
495 -> 497 ;
498 [label=<X<SUB>1</SUB> &le; 1.789<br/>gini = 0.562<br/>samples = 11<br/>value = [0, 0, 0, 0, 0, 0, 4, 1, 6, 0, 0]>, fillcolor="#ecc6f8"] ;
492 -> 498 ;
499 [label=<gini = 0.0<br/>samples = 2<br/>value = [0, 0, 0, 0, 0, 0, 2, 0, 0, 0, 0]>, fillcolor="#396fe5"] ;
498 -> 499 ;
500 [label=<X<SUB>0</SUB> &le; 0.267<br/>gini = 0.494<br/>samples = 9<br/>value = [0, 0, 0, 0, 0, 0, 2, 1, 6, 0, 0]>, fillcolor="#d98ef0"] ;
498 -> 500 ;
501 [label=<X<SUB>0</SUB> &le; 0.252<br/>gini = 0.611<br/>samples = 6<br/>value = [0, 0, 0, 0, 0, 0, 2, 1, 3, 0, 0]>, fillcolor="#eecef8"] ;
500 -> 501 ;
502 [label=<X<SUB>1</SUB> &le; 1.824<br/>gini = 0.375<br/>samples = 4<br/>value = [0, 0, 0, 0, 0, 0, 0, 1, 3, 0, 0]>, fillcolor="#d37bee"] ;
501 -> 502 ;
503 [label=<gini = 0.0<br/>samples = 1<br/>value = [0, 0, 0, 0, 0, 0, 0, 1, 0, 0, 0]>, fillcolor="#6139e5"] ;
502 -> 503 ;
504 [label=<gini = 0.0<br/>samples = 3<br/>value = [0, 0, 0, 0, 0, 0, 0, 0, 3, 0, 0]>, fillcolor="#bd39e5"] ;
502 -> 504 ;
505 [label=<gini = 0.0<br/>samples = 2<br/>value = [0, 0, 0, 0, 0, 0, 2, 0, 0, 0, 0]>, fillcolor="#396fe5"] ;
501 -> 505 ;
506 [label=<gini = 0.0<br/>samples = 3<br/>value = [0, 0, 0, 0, 0, 0, 0, 0, 3, 0, 0]>, fillcolor="#bd39e5"] ;
500 -> 506 ;
507 [label=<X<SUB>0</SUB> &le; 0.312<br/>gini = 0.5<br/>samples = 2<br/>value = [0, 0, 0, 0, 0, 0, 0, 0, 0, 1, 1]>, fillcolor="#ffffff"] ;
491 -> 507 ;
508 [label=<gini = 0.0<br/>samples = 1<br/>value = [0, 0, 0, 0, 0, 0, 0, 0, 0, 0, 1]>, fillcolor="#e53950"] ;
507 -> 508 ;
509 [label=<gini = 0.0<br/>samples = 1<br/>value = [0, 0, 0, 0, 0, 0, 0, 0, 0, 1, 0]>, fillcolor="#e539ae"] ;
507 -> 509 ;
510 [label=<X<SUB>0</SUB> &le; 0.249<br/>gini = 0.699<br/>samples = 17<br/>value = [0, 0, 0, 0, 0, 2, 5, 7, 3, 0, 0]>, fillcolor="#e5defb"] ;
482 -> 510 ;
511 [label=<X<SUB>0</SUB> &le; 0.038<br/>gini = 0.512<br/>samples = 11<br/>value = [0, 0, 0, 0, 0, 1, 0, 7, 3, 0, 0]>, fillcolor="#b09cf2"] ;
510 -> 511 ;
512 [label=<gini = 0.0<br/>samples = 2<br/>value = [0, 0, 0, 0, 0, 0, 0, 0, 2, 0, 0]>, fillcolor="#bd39e5"] ;
511 -> 512 ;
513 [label=<X<SUB>1</SUB> &le; 2.009<br/>gini = 0.37<br/>samples = 9<br/>value = [0, 0, 0, 0, 0, 1, 0, 7, 1, 0, 0]>, fillcolor="#886aec"] ;
511 -> 513 ;
514 [label=<gini = 0.0<br/>samples = 7<br/>value = [0, 0, 0, 0, 0, 0, 0, 7, 0, 0, 0]>, fillcolor="#6139e5"] ;
513 -> 514 ;
515 [label=<X<SUB>1</SUB> &le; 2.018<br/>gini = 0.5<br/>samples = 2<br/>value = [0, 0, 0, 0, 0, 1, 0, 0, 1, 0, 0]>, fillcolor="#ffffff"] ;
513 -> 515 ;
516 [label=<gini = 0.0<br/>samples = 1<br/>value = [0, 0, 0, 0, 0, 1, 0, 0, 0, 0, 0]>, fillcolor="#39cee5"] ;
515 -> 516 ;
517 [label=<gini = 0.0<br/>samples = 1<br/>value = [0, 0, 0, 0, 0, 0, 0, 0, 1, 0, 0]>, fillcolor="#bd39e5"] ;
515 -> 517 ;
518 [label=<X<SUB>1</SUB> &le; 2.0<br/>gini = 0.278<br/>samples = 6<br/>value = [0, 0, 0, 0, 0, 1, 5, 0, 0, 0, 0]>, fillcolor="#618cea"] ;
510 -> 518 ;
519 [label=<gini = 0.0<br/>samples = 4<br/>value = [0, 0, 0, 0, 0, 0, 4, 0, 0, 0, 0]>, fillcolor="#396fe5"] ;
518 -> 519 ;
520 [label=<X<SUB>1</SUB> &le; 2.025<br/>gini = 0.5<br/>samples = 2<br/>value = [0, 0, 0, 0, 0, 1, 1, 0, 0, 0, 0]>, fillcolor="#ffffff"] ;
518 -> 520 ;
521 [label=<gini = 0.0<br/>samples = 1<br/>value = [0, 0, 0, 0, 0, 1, 0, 0, 0, 0, 0]>, fillcolor="#39cee5"] ;
520 -> 521 ;
522 [label=<gini = 0.0<br/>samples = 1<br/>value = [0, 0, 0, 0, 0, 0, 1, 0, 0, 0, 0]>, fillcolor="#396fe5"] ;
520 -> 522 ;
523 [label=<X<SUB>0</SUB> &le; 0.403<br/>gini = 0.608<br/>samples = 81<br/>value = [0, 0, 0, 0, 1, 8, 30, 2, 40, 0, 0]>, fillcolor="#f2d8fa"] ;
443 -> 523 ;
524 [label=<X<SUB>0</SUB> &le; 0.318<br/>gini = 0.318<br/>samples = 22<br/>value = [0, 0, 0, 0, 0, 1, 2, 1, 18, 0, 0]>, fillcolor="#ca61ea"] ;
523 -> 524 ;
525 [label=<X<SUB>1</SUB> &le; 1.647<br/>gini = 0.444<br/>samples = 3<br/>value = [0, 0, 0, 0, 0, 0, 2, 0, 1, 0, 0]>, fillcolor="#9cb7f2"] ;
524 -> 525 ;
526 [label=<gini = 0.0<br/>samples = 1<br/>value = [0, 0, 0, 0, 0, 0, 0, 0, 1, 0, 0]>, fillcolor="#bd39e5"] ;
525 -> 526 ;
527 [label=<gini = 0.0<br/>samples = 2<br/>value = [0, 0, 0, 0, 0, 0, 2, 0, 0, 0, 0]>, fillcolor="#396fe5"] ;
525 -> 527 ;
528 [label=<X<SUB>1</SUB> &le; 2.01<br/>gini = 0.194<br/>samples = 19<br/>value = [0, 0, 0, 0, 0, 1, 0, 1, 17, 0, 0]>, fillcolor="#c44fe8"] ;
524 -> 528 ;
529 [label=<X<SUB>1</SUB> &le; 1.826<br/>gini = 0.111<br/>samples = 17<br/>value = [0, 0, 0, 0, 0, 0, 0, 1, 16, 0, 0]>, fillcolor="#c145e7"] ;
528 -> 529 ;
530 [label=<gini = 0.0<br/>samples = 11<br/>value = [0, 0, 0, 0, 0, 0, 0, 0, 11, 0, 0]>, fillcolor="#bd39e5"] ;
529 -> 530 ;
531 [label=<X<SUB>1</SUB> &le; 1.834<br/>gini = 0.278<br/>samples = 6<br/>value = [0, 0, 0, 0, 0, 0, 0, 1, 5, 0, 0]>, fillcolor="#ca61ea"] ;
529 -> 531 ;
532 [label=<gini = 0.0<br/>samples = 1<br/>value = [0, 0, 0, 0, 0, 0, 0, 1, 0, 0, 0]>, fillcolor="#6139e5"] ;
531 -> 532 ;
533 [label=<gini = 0.0<br/>samples = 5<br/>value = [0, 0, 0, 0, 0, 0, 0, 0, 5, 0, 0]>, fillcolor="#bd39e5"] ;
531 -> 533 ;
534 [label=<X<SUB>1</SUB> &le; 2.018<br/>gini = 0.5<br/>samples = 2<br/>value = [0, 0, 0, 0, 0, 1, 0, 0, 1, 0, 0]>, fillcolor="#ffffff"] ;
528 -> 534 ;
535 [label=<gini = 0.0<br/>samples = 1<br/>value = [0, 0, 0, 0, 0, 1, 0, 0, 0, 0, 0]>, fillcolor="#39cee5"] ;
534 -> 535 ;
536 [label=<gini = 0.0<br/>samples = 1<br/>value = [0, 0, 0, 0, 0, 0, 0, 0, 1, 0, 0]>, fillcolor="#bd39e5"] ;
534 -> 536 ;
537 [label=<X<SUB>0</SUB> &le; 0.556<br/>gini = 0.621<br/>samples = 59<br/>value = [0, 0, 0, 0, 1, 7, 28, 1, 22, 0, 0]>, fillcolor="#dfe8fb"] ;
523 -> 537 ;
538 [label=<X<SUB>0</SUB> &le; 0.43<br/>gini = 0.531<br/>samples = 42<br/>value = [0, 0, 0, 0, 1, 7, 27, 0, 7, 0, 0]>, fillcolor="#8eadf0"] ;
537 -> 538 ;
539 [label=<X<SUB>0</SUB> &le; 0.419<br/>gini = 0.486<br/>samples = 12<br/>value = [0, 0, 0, 0, 0, 7, 5, 0, 0, 0, 0]>, fillcolor="#c6f1f8"] ;
538 -> 539 ;
540 [label=<gini = 0.0<br/>samples = 5<br/>value = [0, 0, 0, 0, 0, 0, 5, 0, 0, 0, 0]>, fillcolor="#396fe5"] ;
539 -> 540 ;
541 [label=<gini = 0.0<br/>samples = 7<br/>value = [0, 0, 0, 0, 0, 7, 0, 0, 0, 0, 0]>, fillcolor="#39cee5"] ;
539 -> 541 ;
542 [label=<X<SUB>1</SUB> &le; 1.629<br/>gini = 0.407<br/>samples = 30<br/>value = [0, 0, 0, 0, 1, 0, 22, 0, 7, 0, 0]>, fillcolor="#7ea1ee"] ;
538 -> 542 ;
543 [label=<X<SUB>1</SUB> &le; 1.56<br/>gini = 0.49<br/>samples = 14<br/>value = [0, 0, 0, 0, 0, 0, 8, 0, 6, 0, 0]>, fillcolor="#cedbf8"] ;
542 -> 543 ;
544 [label=<gini = 0.0<br/>samples = 7<br/>value = [0, 0, 0, 0, 0, 0, 7, 0, 0, 0, 0]>, fillcolor="#396fe5"] ;
543 -> 544 ;
545 [label=<X<SUB>0</SUB> &le; 0.545<br/>gini = 0.245<br/>samples = 7<br/>value = [0, 0, 0, 0, 0, 0, 1, 0, 6, 0, 0]>, fillcolor="#c85ae9"] ;
543 -> 545 ;
546 [label=<gini = 0.0<br/>samples = 6<br/>value = [0, 0, 0, 0, 0, 0, 0, 0, 6, 0, 0]>, fillcolor="#bd39e5"] ;
545 -> 546 ;
547 [label=<gini = 0.0<br/>samples = 1<br/>value = [0, 0, 0, 0, 0, 0, 1, 0, 0, 0, 0]>, fillcolor="#396fe5"] ;
545 -> 547 ;
548 [label=<X<SUB>0</SUB> &le; 0.545<br/>gini = 0.227<br/>samples = 16<br/>value = [0, 0, 0, 0, 1, 0, 14, 0, 1, 0, 0]>, fillcolor="#5382e8"] ;
542 -> 548 ;
549 [label=<X<SUB>0</SUB> &le; 0.464<br/>gini = 0.124<br/>samples = 15<br/>value = [0, 0, 0, 0, 1, 0, 14, 0, 0, 0, 0]>, fillcolor="#4779e7"] ;
548 -> 549 ;
550 [label=<X<SUB>0</SUB> &le; 0.458<br/>gini = 0.375<br/>samples = 4<br/>value = [0, 0, 0, 0, 1, 0, 3, 0, 0, 0, 0]>, fillcolor="#7b9fee"] ;
549 -> 550 ;
551 [label=<gini = 0.0<br/>samples = 3<br/>value = [0, 0, 0, 0, 0, 0, 3, 0, 0, 0, 0]>, fillcolor="#396fe5"] ;
550 -> 551 ;
552 [label=<gini = 0.0<br/>samples = 1<br/>value = [0, 0, 0, 0, 1, 0, 0, 0, 0, 0, 0]>, fillcolor="#39e59d"] ;
550 -> 552 ;
553 [label=<gini = 0.0<br/>samples = 11<br/>value = [0, 0, 0, 0, 0, 0, 11, 0, 0, 0, 0]>, fillcolor="#396fe5"] ;
549 -> 553 ;
554 [label=<gini = 0.0<br/>samples = 1<br/>value = [0, 0, 0, 0, 0, 0, 0, 0, 1, 0, 0]>, fillcolor="#bd39e5"] ;
548 -> 554 ;
555 [label=<X<SUB>0</SUB> &le; 0.582<br/>gini = 0.215<br/>samples = 17<br/>value = [0, 0, 0, 0, 0, 0, 1, 1, 15, 0, 0]>, fillcolor="#c552e8"] ;
537 -> 555 ;
556 [label=<gini = 0.0<br/>samples = 12<br/>value = [0, 0, 0, 0, 0, 0, 0, 0, 12, 0, 0]>, fillcolor="#bd39e5"] ;
555 -> 556 ;
557 [label=<X<SUB>0</SUB> &le; 0.585<br/>gini = 0.56<br/>samples = 5<br/>value = [0, 0, 0, 0, 0, 0, 1, 1, 3, 0, 0]>, fillcolor="#de9cf2"] ;
555 -> 557 ;
558 [label=<gini = 0.0<br/>samples = 1<br/>value = [0, 0, 0, 0, 0, 0, 0, 1, 0, 0, 0]>, fillcolor="#6139e5"] ;
557 -> 558 ;
559 [label=<X<SUB>0</SUB> &le; 0.593<br/>gini = 0.375<br/>samples = 4<br/>value = [0, 0, 0, 0, 0, 0, 1, 0, 3, 0, 0]>, fillcolor="#d37bee"] ;
557 -> 559 ;
560 [label=<gini = 0.0<br/>samples = 2<br/>value = [0, 0, 0, 0, 0, 0, 0, 0, 2, 0, 0]>, fillcolor="#bd39e5"] ;
559 -> 560 ;
561 [label=<X<SUB>1</SUB> &le; 1.676<br/>gini = 0.5<br/>samples = 2<br/>value = [0, 0, 0, 0, 0, 0, 1, 0, 1, 0, 0]>, fillcolor="#ffffff"] ;
559 -> 561 ;
562 [label=<gini = 0.0<br/>samples = 1<br/>value = [0, 0, 0, 0, 0, 0, 1, 0, 0, 0, 0]>, fillcolor="#396fe5"] ;
561 -> 562 ;
563 [label=<gini = 0.0<br/>samples = 1<br/>value = [0, 0, 0, 0, 0, 0, 0, 0, 1, 0, 0]>, fillcolor="#bd39e5"] ;
561 -> 563 ;
564 [label=<X<SUB>0</SUB> &le; 0.719<br/>gini = 0.8<br/>samples = 50<br/>value = [15, 0, 0, 0, 0, 4, 1, 10, 3, 7, 10]>, fillcolor="#fcefe6"] ;
442 -> 564 ;
565 [label=<X<SUB>1</SUB> &le; 1.763<br/>gini = 0.749<br/>samples = 27<br/>value = [4, 0, 0, 0, 0, 0, 1, 4, 1, 7, 10]>, fillcolor="#fbe1e5"] ;
564 -> 565 ;
566 [label=<X<SUB>1</SUB> &le; 1.461<br/>gini = 0.459<br/>samples = 14<br/>value = [2, 0, 0, 0, 0, 0, 1, 0, 1, 0, 10]>, fillcolor="#ee7b8a"] ;
565 -> 566 ;
567 [label=<X<SUB>0</SUB> &le; 0.651<br/>gini = 0.625<br/>samples = 4<br/>value = [2, 0, 0, 0, 0, 0, 0, 0, 1, 0, 1]>, fillcolor="#f6d5bd"] ;
566 -> 567 ;
568 [label=<X<SUB>0</SUB> &le; 0.616<br/>gini = 0.5<br/>samples = 2<br/>value = [0, 0, 0, 0, 0, 0, 0, 0, 1, 0, 1]>, fillcolor="#ffffff"] ;
567 -> 568 ;
569 [label=<gini = 0.0<br/>samples = 1<br/>value = [0, 0, 0, 0, 0, 0, 0, 0, 0, 0, 1]>, fillcolor="#e53950"] ;
568 -> 569 ;
570 [label=<gini = 0.0<br/>samples = 1<br/>value = [0, 0, 0, 0, 0, 0, 0, 0, 1, 0, 0]>, fillcolor="#bd39e5"] ;
568 -> 570 ;
571 [label=<gini = 0.0<br/>samples = 2<br/>value = [2, 0, 0, 0, 0, 0, 0, 0, 0, 0, 0]>, fillcolor="#e58139"] ;
567 -> 571 ;
572 [label=<X<SUB>1</SUB> &le; 1.595<br/>gini = 0.18<br/>samples = 10<br/>value = [0, 0, 0, 0, 0, 0, 1, 0, 0, 0, 9]>, fillcolor="#e84f63"] ;
566 -> 572 ;
573 [label=<gini = 0.0<br/>samples = 5<br/>value = [0, 0, 0, 0, 0, 0, 0, 0, 0, 0, 5]>, fillcolor="#e53950"] ;
572 -> 573 ;
574 [label=<X<SUB>1</SUB> &le; 1.619<br/>gini = 0.32<br/>samples = 5<br/>value = [0, 0, 0, 0, 0, 0, 1, 0, 0, 0, 4]>, fillcolor="#ec6a7c"] ;
572 -> 574 ;
575 [label=<gini = 0.0<br/>samples = 1<br/>value = [0, 0, 0, 0, 0, 0, 1, 0, 0, 0, 0]>, fillcolor="#396fe5"] ;
574 -> 575 ;
576 [label=<gini = 0.0<br/>samples = 4<br/>value = [0, 0, 0, 0, 0, 0, 0, 0, 0, 0, 4]>, fillcolor="#e53950"] ;
574 -> 576 ;
577 [label=<X<SUB>1</SUB> &le; 1.866<br/>gini = 0.592<br/>samples = 13<br/>value = [2, 0, 0, 0, 0, 0, 0, 4, 0, 7, 0]>, fillcolor="#f6bde4"] ;
565 -> 577 ;
578 [label=<X<SUB>1</SUB> &le; 1.82<br/>gini = 0.32<br/>samples = 5<br/>value = [1, 0, 0, 0, 0, 0, 0, 0, 0, 4, 0]>, fillcolor="#ec6ac2"] ;
577 -> 578 ;
579 [label=<gini = 0.0<br/>samples = 3<br/>value = [0, 0, 0, 0, 0, 0, 0, 0, 0, 3, 0]>, fillcolor="#e539ae"] ;
578 -> 579 ;
580 [label=<X<SUB>1</SUB> &le; 1.835<br/>gini = 0.5<br/>samples = 2<br/>value = [1, 0, 0, 0, 0, 0, 0, 0, 0, 1, 0]>, fillcolor="#ffffff"] ;
578 -> 580 ;
581 [label=<gini = 0.0<br/>samples = 1<br/>value = [1, 0, 0, 0, 0, 0, 0, 0, 0, 0, 0]>, fillcolor="#e58139"] ;
580 -> 581 ;
582 [label=<gini = 0.0<br/>samples = 1<br/>value = [0, 0, 0, 0, 0, 0, 0, 0, 0, 1, 0]>, fillcolor="#e539ae"] ;
580 -> 582 ;
583 [label=<X<SUB>1</SUB> &le; 1.935<br/>gini = 0.594<br/>samples = 8<br/>value = [1, 0, 0, 0, 0, 0, 0, 4, 0, 3, 0]>, fillcolor="#dfd7fa"] ;
577 -> 583 ;
584 [label=<gini = 0.0<br/>samples = 3<br/>value = [0, 0, 0, 0, 0, 0, 0, 3, 0, 0, 0]>, fillcolor="#6139e5"] ;
583 -> 584 ;
585 [label=<X<SUB>0</SUB> &le; 0.619<br/>gini = 0.56<br/>samples = 5<br/>value = [1, 0, 0, 0, 0, 0, 0, 1, 0, 3, 0]>, fillcolor="#f29cd6"] ;
583 -> 585 ;
586 [label=<gini = 0.0<br/>samples = 1<br/>value = [1, 0, 0, 0, 0, 0, 0, 0, 0, 0, 0]>, fillcolor="#e58139"] ;
585 -> 586 ;
587 [label=<X<SUB>1</SUB> &le; 2.007<br/>gini = 0.375<br/>samples = 4<br/>value = [0, 0, 0, 0, 0, 0, 0, 1, 0, 3, 0]>, fillcolor="#ee7bc9"] ;
585 -> 587 ;
588 [label=<gini = 0.0<br/>samples = 3<br/>value = [0, 0, 0, 0, 0, 0, 0, 0, 0, 3, 0]>, fillcolor="#e539ae"] ;
587 -> 588 ;
589 [label=<gini = 0.0<br/>samples = 1<br/>value = [0, 0, 0, 0, 0, 0, 0, 1, 0, 0, 0]>, fillcolor="#6139e5"] ;
587 -> 589 ;
590 [label=<X<SUB>1</SUB> &le; 1.799<br/>gini = 0.665<br/>samples = 23<br/>value = [11, 0, 0, 0, 0, 4, 0, 6, 2, 0, 0]>, fillcolor="#f7dac5"] ;
564 -> 590 ;
591 [label=<X<SUB>1</SUB> &le; 1.343<br/>gini = 0.562<br/>samples = 18<br/>value = [11, 0, 0, 0, 0, 1, 0, 4, 2, 0, 0]>, fillcolor="#f2c09c"] ;
590 -> 591 ;
592 [label=<gini = 0.0<br/>samples = 2<br/>value = [0, 0, 0, 0, 0, 0, 0, 0, 2, 0, 0]>, fillcolor="#bd39e5"] ;
591 -> 592 ;
593 [label=<X<SUB>0</SUB> &le; 0.754<br/>gini = 0.461<br/>samples = 16<br/>value = [11, 0, 0, 0, 0, 1, 0, 4, 0, 0, 0]>, fillcolor="#f0b68c"] ;
591 -> 593 ;
594 [label=<X<SUB>1</SUB> &le; 1.735<br/>gini = 0.5<br/>samples = 8<br/>value = [4, 0, 0, 0, 0, 0, 0, 4, 0, 0, 0]>, fillcolor="#ffffff"] ;
593 -> 594 ;
595 [label=<X<SUB>1</SUB> &le; 1.371<br/>gini = 0.444<br/>samples = 6<br/>value = [2, 0, 0, 0, 0, 0, 0, 4, 0, 0, 0]>, fillcolor="#b09cf2"] ;
594 -> 595 ;
596 [label=<gini = 0.0<br/>samples = 1<br/>value = [1, 0, 0, 0, 0, 0, 0, 0, 0, 0, 0]>, fillcolor="#e58139"] ;
595 -> 596 ;
597 [label=<X<SUB>0</SUB> &le; 0.723<br/>gini = 0.32<br/>samples = 5<br/>value = [1, 0, 0, 0, 0, 0, 0, 4, 0, 0, 0]>, fillcolor="#886aec"] ;
595 -> 597 ;
598 [label=<gini = 0.0<br/>samples = 1<br/>value = [1, 0, 0, 0, 0, 0, 0, 0, 0, 0, 0]>, fillcolor="#e58139"] ;
597 -> 598 ;
599 [label=<gini = 0.0<br/>samples = 4<br/>value = [0, 0, 0, 0, 0, 0, 0, 4, 0, 0, 0]>, fillcolor="#6139e5"] ;
597 -> 599 ;
600 [label=<gini = 0.0<br/>samples = 2<br/>value = [2, 0, 0, 0, 0, 0, 0, 0, 0, 0, 0]>, fillcolor="#e58139"] ;
594 -> 600 ;
601 [label=<X<SUB>0</SUB> &le; 0.763<br/>gini = 0.219<br/>samples = 8<br/>value = [7, 0, 0, 0, 0, 1, 0, 0, 0, 0, 0]>, fillcolor="#e99355"] ;
593 -> 601 ;
602 [label=<gini = 0.0<br/>samples = 5<br/>value = [5, 0, 0, 0, 0, 0, 0, 0, 0, 0, 0]>, fillcolor="#e58139"] ;
601 -> 602 ;
603 [label=<X<SUB>0</SUB> &le; 0.767<br/>gini = 0.444<br/>samples = 3<br/>value = [2, 0, 0, 0, 0, 1, 0, 0, 0, 0, 0]>, fillcolor="#f2c09c"] ;
601 -> 603 ;
604 [label=<gini = 0.0<br/>samples = 1<br/>value = [0, 0, 0, 0, 0, 1, 0, 0, 0, 0, 0]>, fillcolor="#39cee5"] ;
603 -> 604 ;
605 [label=<gini = 0.0<br/>samples = 2<br/>value = [2, 0, 0, 0, 0, 0, 0, 0, 0, 0, 0]>, fillcolor="#e58139"] ;
603 -> 605 ;
606 [label=<X<SUB>0</SUB> &le; 0.758<br/>gini = 0.48<br/>samples = 5<br/>value = [0, 0, 0, 0, 0, 3, 0, 2, 0, 0, 0]>, fillcolor="#bdeff6"] ;
590 -> 606 ;
607 [label=<X<SUB>0</SUB> &le; 0.746<br/>gini = 0.444<br/>samples = 3<br/>value = [0, 0, 0, 0, 0, 1, 0, 2, 0, 0, 0]>, fillcolor="#b09cf2"] ;
606 -> 607 ;
608 [label=<gini = 0.0<br/>samples = 1<br/>value = [0, 0, 0, 0, 0, 1, 0, 0, 0, 0, 0]>, fillcolor="#39cee5"] ;
607 -> 608 ;
609 [label=<gini = 0.0<br/>samples = 2<br/>value = [0, 0, 0, 0, 0, 0, 0, 2, 0, 0, 0]>, fillcolor="#6139e5"] ;
607 -> 609 ;
610 [label=<gini = 0.0<br/>samples = 2<br/>value = [0, 0, 0, 0, 0, 2, 0, 0, 0, 0, 0]>, fillcolor="#39cee5"] ;
606 -> 610 ;
611 [label=<X<SUB>0</SUB> &le; 0.807<br/>gini = 0.142<br/>samples = 13<br/>value = [1, 0, 0, 0, 0, 0, 12, 0, 0, 0, 0]>, fillcolor="#497be7"] ;
441 -> 611 ;
612 [label=<gini = 0.0<br/>samples = 12<br/>value = [0, 0, 0, 0, 0, 0, 12, 0, 0, 0, 0]>, fillcolor="#396fe5"] ;
611 -> 612 ;
613 [label=<gini = 0.0<br/>samples = 1<br/>value = [1, 0, 0, 0, 0, 0, 0, 0, 0, 0, 0]>, fillcolor="#e58139"] ;
611 -> 613 ;
614 [label=<X<SUB>1</SUB> &le; 1.335<br/>gini = 0.633<br/>samples = 75<br/>value = [4, 0, 0, 0, 0, 0, 8, 41, 3, 2, 17]>, fillcolor="#beadf4"] ;
376 -> 614 ;
615 [label=<X<SUB>0</SUB> &le; 0.879<br/>gini = 0.726<br/>samples = 24<br/>value = [0, 0, 0, 0, 0, 0, 6, 7, 3, 0, 8]>, fillcolor="#fdf3f5"] ;
614 -> 615 ;
616 [label=<X<SUB>1</SUB> &le; 1.238<br/>gini = 0.579<br/>samples = 11<br/>value = [0, 0, 0, 0, 0, 0, 5, 5, 1, 0, 0]>, fillcolor="#ffffff"] ;
615 -> 616 ;
617 [label=<X<SUB>1</SUB> &le; 1.088<br/>gini = 0.278<br/>samples = 6<br/>value = [0, 0, 0, 0, 0, 0, 1, 5, 0, 0, 0]>, fillcolor="#8161ea"] ;
616 -> 617 ;
618 [label=<gini = 0.0<br/>samples = 1<br/>value = [0, 0, 0, 0, 0, 0, 1, 0, 0, 0, 0]>, fillcolor="#396fe5"] ;
617 -> 618 ;
619 [label=<gini = 0.0<br/>samples = 5<br/>value = [0, 0, 0, 0, 0, 0, 0, 5, 0, 0, 0]>, fillcolor="#6139e5"] ;
617 -> 619 ;
620 [label=<X<SUB>1</SUB> &le; 1.308<br/>gini = 0.32<br/>samples = 5<br/>value = [0, 0, 0, 0, 0, 0, 4, 0, 1, 0, 0]>, fillcolor="#6a93ec"] ;
616 -> 620 ;
621 [label=<gini = 0.0<br/>samples = 4<br/>value = [0, 0, 0, 0, 0, 0, 4, 0, 0, 0, 0]>, fillcolor="#396fe5"] ;
620 -> 621 ;
622 [label=<gini = 0.0<br/>samples = 1<br/>value = [0, 0, 0, 0, 0, 0, 0, 0, 1, 0, 0]>, fillcolor="#bd39e5"] ;
620 -> 622 ;
623 [label=<X<SUB>1</SUB> &le; 1.309<br/>gini = 0.568<br/>samples = 13<br/>value = [0, 0, 0, 0, 0, 0, 1, 2, 2, 0, 8]>, fillcolor="#f193a0"] ;
615 -> 623 ;
624 [label=<X<SUB>1</SUB> &le; 1.049<br/>gini = 0.446<br/>samples = 11<br/>value = [0, 0, 0, 0, 0, 0, 1, 1, 1, 0, 8]>, fillcolor="#ed7484"] ;
623 -> 624 ;
625 [label=<gini = 0.0<br/>samples = 1<br/>value = [0, 0, 0, 0, 0, 0, 0, 0, 1, 0, 0]>, fillcolor="#bd39e5"] ;
624 -> 625 ;
626 [label=<X<SUB>1</SUB> &le; 1.19<br/>gini = 0.34<br/>samples = 10<br/>value = [0, 0, 0, 0, 0, 0, 1, 1, 0, 0, 8]>, fillcolor="#eb6577"] ;
624 -> 626 ;
627 [label=<gini = 0.0<br/>samples = 6<br/>value = [0, 0, 0, 0, 0, 0, 0, 0, 0, 0, 6]>, fillcolor="#e53950"] ;
626 -> 627 ;
628 [label=<X<SUB>1</SUB> &le; 1.215<br/>gini = 0.625<br/>samples = 4<br/>value = [0, 0, 0, 0, 0, 0, 1, 1, 0, 0, 2]>, fillcolor="#f6bdc5"] ;
626 -> 628 ;
629 [label=<gini = 0.0<br/>samples = 1<br/>value = [0, 0, 0, 0, 0, 0, 0, 1, 0, 0, 0]>, fillcolor="#6139e5"] ;
628 -> 629 ;
630 [label=<X<SUB>0</SUB> &le; 0.908<br/>gini = 0.444<br/>samples = 3<br/>value = [0, 0, 0, 0, 0, 0, 1, 0, 0, 0, 2]>, fillcolor="#f29ca8"] ;
628 -> 630 ;
631 [label=<gini = 0.0<br/>samples = 1<br/>value = [0, 0, 0, 0, 0, 0, 0, 0, 0, 0, 1]>, fillcolor="#e53950"] ;
630 -> 631 ;
632 [label=<X<SUB>0</SUB> &le; 0.955<br/>gini = 0.5<br/>samples = 2<br/>value = [0, 0, 0, 0, 0, 0, 1, 0, 0, 0, 1]>, fillcolor="#ffffff"] ;
630 -> 632 ;
633 [label=<gini = 0.0<br/>samples = 1<br/>value = [0, 0, 0, 0, 0, 0, 1, 0, 0, 0, 0]>, fillcolor="#396fe5"] ;
632 -> 633 ;
634 [label=<gini = 0.0<br/>samples = 1<br/>value = [0, 0, 0, 0, 0, 0, 0, 0, 0, 0, 1]>, fillcolor="#e53950"] ;
632 -> 634 ;
635 [label=<X<SUB>1</SUB> &le; 1.329<br/>gini = 0.5<br/>samples = 2<br/>value = [0, 0, 0, 0, 0, 0, 0, 1, 1, 0, 0]>, fillcolor="#ffffff"] ;
623 -> 635 ;
636 [label=<gini = 0.0<br/>samples = 1<br/>value = [0, 0, 0, 0, 0, 0, 0, 1, 0, 0, 0]>, fillcolor="#6139e5"] ;
635 -> 636 ;
637 [label=<gini = 0.0<br/>samples = 1<br/>value = [0, 0, 0, 0, 0, 0, 0, 0, 1, 0, 0]>, fillcolor="#bd39e5"] ;
635 -> 637 ;
638 [label=<X<SUB>0</SUB> &le; 0.96<br/>gini = 0.515<br/>samples = 51<br/>value = [4, 0, 0, 0, 0, 0, 2, 34, 0, 2, 9]>, fillcolor="#a189f0"] ;
614 -> 638 ;
639 [label=<X<SUB>1</SUB> &le; 1.641<br/>gini = 0.397<br/>samples = 45<br/>value = [4, 0, 0, 0, 0, 0, 0, 34, 0, 0, 7]>, fillcolor="#8f72ed"] ;
638 -> 639 ;
640 [label=<X<SUB>1</SUB> &le; 1.51<br/>gini = 0.571<br/>samples = 26<br/>value = [4, 0, 0, 0, 0, 0, 0, 15, 0, 0, 7]>, fillcolor="#bcacf4"] ;
639 -> 640 ;
641 [label=<X<SUB>0</SUB> &le; 0.892<br/>gini = 0.227<br/>samples = 16<br/>value = [1, 0, 0, 0, 0, 0, 0, 14, 0, 0, 1]>, fillcolor="#7653e8"] ;
640 -> 641 ;
642 [label=<X<SUB>0</SUB> &le; 0.883<br/>gini = 0.56<br/>samples = 5<br/>value = [1, 0, 0, 0, 0, 0, 0, 3, 0, 0, 1]>, fillcolor="#b09cf2"] ;
641 -> 642 ;
643 [label=<X<SUB>1</SUB> &le; 1.359<br/>gini = 0.375<br/>samples = 4<br/>value = [1, 0, 0, 0, 0, 0, 0, 3, 0, 0, 0]>, fillcolor="#967bee"] ;
642 -> 643 ;
644 [label=<gini = 0.0<br/>samples = 3<br/>value = [0, 0, 0, 0, 0, 0, 0, 3, 0, 0, 0]>, fillcolor="#6139e5"] ;
643 -> 644 ;
645 [label=<gini = 0.0<br/>samples = 1<br/>value = [1, 0, 0, 0, 0, 0, 0, 0, 0, 0, 0]>, fillcolor="#e58139"] ;
643 -> 645 ;
646 [label=<gini = 0.0<br/>samples = 1<br/>value = [0, 0, 0, 0, 0, 0, 0, 0, 0, 0, 1]>, fillcolor="#e53950"] ;
642 -> 646 ;
647 [label=<gini = 0.0<br/>samples = 11<br/>value = [0, 0, 0, 0, 0, 0, 0, 11, 0, 0, 0]>, fillcolor="#6139e5"] ;
641 -> 647 ;
648 [label=<X<SUB>0</SUB> &le; 0.842<br/>gini = 0.54<br/>samples = 10<br/>value = [3, 0, 0, 0, 0, 0, 0, 1, 0, 0, 6]>, fillcolor="#f4aab4"] ;
640 -> 648 ;
649 [label=<gini = 0.0<br/>samples = 3<br/>value = [3, 0, 0, 0, 0, 0, 0, 0, 0, 0, 0]>, fillcolor="#e58139"] ;
648 -> 649 ;
650 [label=<X<SUB>0</SUB> &le; 0.935<br/>gini = 0.245<br/>samples = 7<br/>value = [0, 0, 0, 0, 0, 0, 0, 1, 0, 0, 6]>, fillcolor="#e95a6d"] ;
648 -> 650 ;
651 [label=<gini = 0.0<br/>samples = 6<br/>value = [0, 0, 0, 0, 0, 0, 0, 0, 0, 0, 6]>, fillcolor="#e53950"] ;
650 -> 651 ;
652 [label=<gini = 0.0<br/>samples = 1<br/>value = [0, 0, 0, 0, 0, 0, 0, 1, 0, 0, 0]>, fillcolor="#6139e5"] ;
650 -> 652 ;
653 [label=<gini = 0.0<br/>samples = 19<br/>value = [0, 0, 0, 0, 0, 0, 0, 19, 0, 0, 0]>, fillcolor="#6139e5"] ;
639 -> 653 ;
654 [label=<X<SUB>0</SUB> &le; 0.965<br/>gini = 0.667<br/>samples = 6<br/>value = [0, 0, 0, 0, 0, 0, 2, 0, 0, 2, 2]>, fillcolor="#ffffff"] ;
638 -> 654 ;
655 [label=<gini = 0.0<br/>samples = 2<br/>value = [0, 0, 0, 0, 0, 0, 2, 0, 0, 0, 0]>, fillcolor="#396fe5"] ;
654 -> 655 ;
656 [label=<X<SUB>1</SUB> &le; 1.758<br/>gini = 0.5<br/>samples = 4<br/>value = [0, 0, 0, 0, 0, 0, 0, 0, 0, 2, 2]>, fillcolor="#ffffff"] ;
654 -> 656 ;
657 [label=<gini = 0.0<br/>samples = 2<br/>value = [0, 0, 0, 0, 0, 0, 0, 0, 0, 0, 2]>, fillcolor="#e53950"] ;
656 -> 657 ;
658 [label=<gini = 0.0<br/>samples = 2<br/>value = [0, 0, 0, 0, 0, 0, 0, 0, 0, 2, 0]>, fillcolor="#e539ae"] ;
656 -> 658 ;
659 [label=<X<SUB>1</SUB> &le; 2.847<br/>gini = 0.847<br/>samples = 270<br/>value = [49, 0, 0, 18, 45, 31, 43, 35, 0, 49, 0]>, fillcolor="#ffffff"] ;
375 -> 659 ;
660 [label=<X<SUB>0</SUB> &le; 0.707<br/>gini = 0.845<br/>samples = 239<br/>value = [46, 0, 0, 18, 29, 29, 37, 31, 0, 49, 0]>, fillcolor="#fffcfe"] ;
659 -> 660 ;
661 [label=<X<SUB>1</SUB> &le; 2.716<br/>gini = 0.839<br/>samples = 170<br/>value = [39, 0, 0, 16, 21, 22, 33, 12, 0, 27, 0]>, fillcolor="#fef9f6"] ;
660 -> 661 ;
662 [label=<X<SUB>0</SUB> &le; 0.124<br/>gini = 0.839<br/>samples = 153<br/>value = [32, 0, 0, 16, 21, 22, 30, 7, 0, 25, 0]>, fillcolor="#fffdfc"] ;
661 -> 662 ;
663 [label=<X<SUB>1</SUB> &le; 2.24<br/>gini = 0.686<br/>samples = 22<br/>value = [8, 0, 0, 1, 1, 1, 9, 0, 0, 2, 0]>, fillcolor="#f1f5fd"] ;
662 -> 663 ;
664 [label=<X<SUB>1</SUB> &le; 2.043<br/>gini = 0.656<br/>samples = 8<br/>value = [4, 0, 0, 1, 0, 0, 1, 0, 0, 2, 0]>, fillcolor="#f6d5bd"] ;
663 -> 664 ;
665 [label=<gini = 0.0<br/>samples = 1<br/>value = [0, 0, 0, 1, 0, 0, 0, 0, 0, 0, 0]>, fillcolor="#39e541"] ;
664 -> 665 ;
666 [label=<X<SUB>1</SUB> &le; 2.121<br/>gini = 0.571<br/>samples = 7<br/>value = [4, 0, 0, 0, 0, 0, 1, 0, 0, 2, 0]>, fillcolor="#f5cdb0"] ;
664 -> 666 ;
667 [label=<X<SUB>0</SUB> &le; 0.104<br/>gini = 0.375<br/>samples = 4<br/>value = [3, 0, 0, 0, 0, 0, 1, 0, 0, 0, 0]>, fillcolor="#eeab7b"] ;
666 -> 667 ;
668 [label=<X<SUB>1</SUB> &le; 2.055<br/>gini = 0.5<br/>samples = 2<br/>value = [1, 0, 0, 0, 0, 0, 1, 0, 0, 0, 0]>, fillcolor="#ffffff"] ;
667 -> 668 ;
669 [label=<gini = 0.0<br/>samples = 1<br/>value = [1, 0, 0, 0, 0, 0, 0, 0, 0, 0, 0]>, fillcolor="#e58139"] ;
668 -> 669 ;
670 [label=<gini = 0.0<br/>samples = 1<br/>value = [0, 0, 0, 0, 0, 0, 1, 0, 0, 0, 0]>, fillcolor="#396fe5"] ;
668 -> 670 ;
671 [label=<gini = 0.0<br/>samples = 2<br/>value = [2, 0, 0, 0, 0, 0, 0, 0, 0, 0, 0]>, fillcolor="#e58139"] ;
667 -> 671 ;
672 [label=<X<SUB>0</SUB> &le; 0.028<br/>gini = 0.444<br/>samples = 3<br/>value = [1, 0, 0, 0, 0, 0, 0, 0, 0, 2, 0]>, fillcolor="#f29cd6"] ;
666 -> 672 ;
673 [label=<gini = 0.0<br/>samples = 1<br/>value = [1, 0, 0, 0, 0, 0, 0, 0, 0, 0, 0]>, fillcolor="#e58139"] ;
672 -> 673 ;
674 [label=<gini = 0.0<br/>samples = 2<br/>value = [0, 0, 0, 0, 0, 0, 0, 0, 0, 2, 0]>, fillcolor="#e539ae"] ;
672 -> 674 ;
675 [label=<X<SUB>0</SUB> &le; 0.066<br/>gini = 0.582<br/>samples = 14<br/>value = [4, 0, 0, 0, 1, 1, 8, 0, 0, 0, 0]>, fillcolor="#b0c5f5"] ;
663 -> 675 ;
676 [label=<X<SUB>1</SUB> &le; 2.506<br/>gini = 0.245<br/>samples = 7<br/>value = [0, 0, 0, 0, 0, 1, 6, 0, 0, 0, 0]>, fillcolor="#5a87e9"] ;
675 -> 676 ;
677 [label=<gini = 0.0<br/>samples = 6<br/>value = [0, 0, 0, 0, 0, 0, 6, 0, 0, 0, 0]>, fillcolor="#396fe5"] ;
676 -> 677 ;
678 [label=<gini = 0.0<br/>samples = 1<br/>value = [0, 0, 0, 0, 0, 1, 0, 0, 0, 0, 0]>, fillcolor="#39cee5"] ;
676 -> 678 ;
679 [label=<X<SUB>1</SUB> &le; 2.54<br/>gini = 0.571<br/>samples = 7<br/>value = [4, 0, 0, 0, 1, 0, 2, 0, 0, 0, 0]>, fillcolor="#f5cdb0"] ;
675 -> 679 ;
680 [label=<X<SUB>1</SUB> &le; 2.3<br/>gini = 0.32<br/>samples = 5<br/>value = [4, 0, 0, 0, 1, 0, 0, 0, 0, 0, 0]>, fillcolor="#eca06a"] ;
679 -> 680 ;
681 [label=<gini = 0.0<br/>samples = 1<br/>value = [0, 0, 0, 0, 1, 0, 0, 0, 0, 0, 0]>, fillcolor="#39e59d"] ;
680 -> 681 ;
682 [label=<gini = 0.0<br/>samples = 4<br/>value = [4, 0, 0, 0, 0, 0, 0, 0, 0, 0, 0]>, fillcolor="#e58139"] ;
680 -> 682 ;
683 [label=<gini = 0.0<br/>samples = 2<br/>value = [0, 0, 0, 0, 0, 0, 2, 0, 0, 0, 0]>, fillcolor="#396fe5"] ;
679 -> 683 ;
684 [label=<X<SUB>0</SUB> &le; 0.481<br/>gini = 0.845<br/>samples = 131<br/>value = [24, 0, 0, 15, 20, 21, 21, 7, 0, 23, 0]>, fillcolor="#fffefd"] ;
662 -> 684 ;
685 [label=<X<SUB>1</SUB> &le; 2.234<br/>gini = 0.831<br/>samples = 80<br/>value = [18, 0, 0, 13, 14, 15, 6, 3, 0, 11, 0]>, fillcolor="#fef9f6"] ;
684 -> 685 ;
686 [label=<X<SUB>1</SUB> &le; 2.095<br/>gini = 0.715<br/>samples = 19<br/>value = [9, 0, 0, 3, 0, 2, 2, 1, 0, 2, 0]>, fillcolor="#f5d0b5"] ;
685 -> 686 ;
687 [label=<X<SUB>0</SUB> &le; 0.224<br/>gini = 0.719<br/>samples = 8<br/>value = [2, 0, 0, 3, 0, 1, 2, 0, 0, 0, 0]>, fillcolor="#defbdf"] ;
686 -> 687 ;
688 [label=<gini = 0.0<br/>samples = 2<br/>value = [0, 0, 0, 2, 0, 0, 0, 0, 0, 0, 0]>, fillcolor="#39e541"] ;
687 -> 688 ;
689 [label=<X<SUB>1</SUB> &le; 2.04<br/>gini = 0.722<br/>samples = 6<br/>value = [2, 0, 0, 1, 0, 1, 2, 0, 0, 0, 0]>, fillcolor="#ffffff"] ;
687 -> 689 ;
690 [label=<gini = 0.0<br/>samples = 1<br/>value = [0, 0, 0, 1, 0, 0, 0, 0, 0, 0, 0]>, fillcolor="#39e541"] ;
689 -> 690 ;
691 [label=<X<SUB>0</SUB> &le; 0.306<br/>gini = 0.64<br/>samples = 5<br/>value = [2, 0, 0, 0, 0, 1, 2, 0, 0, 0, 0]>, fillcolor="#ffffff"] ;
689 -> 691 ;
692 [label=<X<SUB>0</SUB> &le; 0.261<br/>gini = 0.5<br/>samples = 2<br/>value = [0, 0, 0, 0, 0, 1, 1, 0, 0, 0, 0]>, fillcolor="#ffffff"] ;
691 -> 692 ;
693 [label=<gini = 0.0<br/>samples = 1<br/>value = [0, 0, 0, 0, 0, 0, 1, 0, 0, 0, 0]>, fillcolor="#396fe5"] ;
692 -> 693 ;
694 [label=<gini = 0.0<br/>samples = 1<br/>value = [0, 0, 0, 0, 0, 1, 0, 0, 0, 0, 0]>, fillcolor="#39cee5"] ;
692 -> 694 ;
695 [label=<X<SUB>0</SUB> &le; 0.434<br/>gini = 0.444<br/>samples = 3<br/>value = [2, 0, 0, 0, 0, 0, 1, 0, 0, 0, 0]>, fillcolor="#f2c09c"] ;
691 -> 695 ;
696 [label=<gini = 0.0<br/>samples = 2<br/>value = [2, 0, 0, 0, 0, 0, 0, 0, 0, 0, 0]>, fillcolor="#e58139"] ;
695 -> 696 ;
697 [label=<gini = 0.0<br/>samples = 1<br/>value = [0, 0, 0, 0, 0, 0, 1, 0, 0, 0, 0]>, fillcolor="#396fe5"] ;
695 -> 697 ;
698 [label=<X<SUB>1</SUB> &le; 2.156<br/>gini = 0.545<br/>samples = 11<br/>value = [7, 0, 0, 0, 0, 1, 0, 1, 0, 2, 0]>, fillcolor="#f1b991"] ;
686 -> 698 ;
699 [label=<gini = 0.0<br/>samples = 4<br/>value = [4, 0, 0, 0, 0, 0, 0, 0, 0, 0, 0]>, fillcolor="#e58139"] ;
698 -> 699 ;
700 [label=<X<SUB>1</SUB> &le; 2.215<br/>gini = 0.694<br/>samples = 7<br/>value = [3, 0, 0, 0, 0, 1, 0, 1, 0, 2, 0]>, fillcolor="#fae6d7"] ;
698 -> 700 ;
701 [label=<X<SUB>0</SUB> &le; 0.281<br/>gini = 0.625<br/>samples = 4<br/>value = [0, 0, 0, 0, 0, 1, 0, 1, 0, 2, 0]>, fillcolor="#f6bde4"] ;
700 -> 701 ;
702 [label=<gini = 0.0<br/>samples = 1<br/>value = [0, 0, 0, 0, 0, 1, 0, 0, 0, 0, 0]>, fillcolor="#39cee5"] ;
701 -> 702 ;
703 [label=<X<SUB>0</SUB> &le; 0.402<br/>gini = 0.444<br/>samples = 3<br/>value = [0, 0, 0, 0, 0, 0, 0, 1, 0, 2, 0]>, fillcolor="#f29cd6"] ;
701 -> 703 ;
704 [label=<gini = 0.0<br/>samples = 2<br/>value = [0, 0, 0, 0, 0, 0, 0, 0, 0, 2, 0]>, fillcolor="#e539ae"] ;
703 -> 704 ;
705 [label=<gini = 0.0<br/>samples = 1<br/>value = [0, 0, 0, 0, 0, 0, 0, 1, 0, 0, 0]>, fillcolor="#6139e5"] ;
703 -> 705 ;
706 [label=<gini = 0.0<br/>samples = 3<br/>value = [3, 0, 0, 0, 0, 0, 0, 0, 0, 0, 0]>, fillcolor="#e58139"] ;
700 -> 706 ;
707 [label=<X<SUB>1</SUB> &le; 2.65<br/>gini = 0.826<br/>samples = 61<br/>value = [9, 0, 0, 10, 14, 13, 4, 2, 0, 9, 0]>, fillcolor="#fbfefd"] ;
685 -> 707 ;
708 [label=<X<SUB>0</SUB> &le; 0.453<br/>gini = 0.827<br/>samples = 56<br/>value = [8, 0, 0, 10, 14, 9, 4, 2, 0, 9, 0]>, fillcolor="#eefdf6"] ;
707 -> 708 ;
709 [label=<X<SUB>1</SUB> &le; 2.466<br/>gini = 0.826<br/>samples = 50<br/>value = [8, 0, 0, 10, 12, 5, 4, 2, 0, 9, 0]>, fillcolor="#f5fefa"] ;
708 -> 709 ;
710 [label=<X<SUB>0</SUB> &le; 0.221<br/>gini = 0.793<br/>samples = 30<br/>value = [2, 0, 0, 9, 6, 5, 0, 2, 0, 6, 0]>, fillcolor="#e6fce7"] ;
709 -> 710 ;
711 [label=<X<SUB>0</SUB> &le; 0.188<br/>gini = 0.469<br/>samples = 8<br/>value = [0, 0, 0, 5, 0, 0, 0, 0, 0, 3, 0]>, fillcolor="#b0f5b3"] ;
710 -> 711 ;
712 [label=<X<SUB>1</SUB> &le; 2.442<br/>gini = 0.375<br/>samples = 4<br/>value = [0, 0, 0, 1, 0, 0, 0, 0, 0, 3, 0]>, fillcolor="#ee7bc9"] ;
711 -> 712 ;
713 [label=<gini = 0.0<br/>samples = 3<br/>value = [0, 0, 0, 0, 0, 0, 0, 0, 0, 3, 0]>, fillcolor="#e539ae"] ;
712 -> 713 ;
714 [label=<gini = 0.0<br/>samples = 1<br/>value = [0, 0, 0, 1, 0, 0, 0, 0, 0, 0, 0]>, fillcolor="#39e541"] ;
712 -> 714 ;
715 [label=<gini = 0.0<br/>samples = 4<br/>value = [0, 0, 0, 4, 0, 0, 0, 0, 0, 0, 0]>, fillcolor="#39e541"] ;
711 -> 715 ;
716 [label=<X<SUB>1</SUB> &le; 2.256<br/>gini = 0.806<br/>samples = 22<br/>value = [2, 0, 0, 4, 6, 5, 0, 2, 0, 3, 0]>, fillcolor="#f3fdf9"] ;
710 -> 716 ;
717 [label=<gini = 0.0<br/>samples = 2<br/>value = [0, 0, 0, 2, 0, 0, 0, 0, 0, 0, 0]>, fillcolor="#39e541"] ;
716 -> 717 ;
718 [label=<X<SUB>1</SUB> &le; 2.277<br/>gini = 0.795<br/>samples = 20<br/>value = [2, 0, 0, 2, 6, 5, 0, 2, 0, 3, 0]>, fillcolor="#f2fdf8"] ;
716 -> 718 ;
